784 10
0.097627 0.185689 0.430379 0.688532 0.205527 0.715891 0.0897664 0.694503 -0.15269 0.247127 0.291788 -0.231237 -0.124826 -0.404939 0.783538 -0.886574 0.927325 -0.454687 -0.233117 -0.0446697 0.58345 0.624337 0.0577898 -0.0400457 0.136089 -0.21443 0.851193 0.672158 -0.857928 -0.325208 -0.825741 0.296344 -0.959563 -0.263517 0.66524 0.91431 0.556314 -0.719386 0.730441 1.40979 2.39226 0.562755 0.597044 0.591171 -0.0953128 0.0360146 0.56104 0.357753 -0.76349 0.44082 0.279638 0.16404 -0.713293 0.0747465 0.889338 0.517231 0.0436966 -0.788185 -0.170676 -0.0464457 -0.451849 -0.6294 -0.304824 -0.548875 -0.505289 -0.775764 -0.116314 -0.696923 -0.76639 0.268445 -0.062085 -1.8698 -0.370209 -2.16852 -1.61851 -1.78652 -0.577151 0.229134 0.216219 -0.111671 -0.281982 0.226122 -0.125936 0.804697 0.395262 -0.801439 -0.879549 0.716353 0.0355801 0.275387 -0.740059 -1.81622 -1.98197 -2.88178 -3.76504 -0.199987 -2.06682 -2.22884 -1.66096 -2.28446 -0.00679842 -0.730807 -2.2633 -2.4665 -2.27149 -2.83122 -2.31608 -0.0506044 -0.644021 0.0796237 -0.727253 0.990599 0.306217 0.163701 -0.493417 -0.207702 -0.252504 -0.379997 -1.12037 -0.990651 0.460403 1.24519 -1.61653 1.53474 -2.22337 2.59907 -0.495277 0.559705 -2.41117 0.462617 0.730865 -0.0291086 0.324392 -1.26154 0.563883 0.232496 -1.66946 -0.684728 -0.843688 0.94389 0.952919 0.756387 -0.0867091 -0.0620565 0.349163 -1.97845 0.680121 -1.16782 0.229141 -2.47132 1.9313 -0.577108 -0.198395 0.301415 1.27252 -0.0307377 1.74531 -0.297893 1.2829 -0.255069 0.182582 0.186443 -3.22238 0.570068 -2.49122 -1.56682 0.226782 -0.175972 0.133203 0.730205 -0.477788 -0.0129375 -1.22898 0.252093 -1.86899 -0.908542 1.29946 -2.7006 -0.229029 -0.519791 -1.03643 1.34146 -1.48167 1.99628 -1.57952 0.238495 -0.244709 -0.927326 -0.282586 1.19779 2.40235 -0.313975 -1.80078 -2.45122 -2.29035 -1.42679 0.65788 -0.260479 -1.09872 -0.925393 -0.886201 0.0636509 0.348488 1.12094 -2.85858 -0.316024 -0.809061 1.74754 -1.39068 0.483936 -1.06754 0.724805 -0.101553 1.33573 1.40118 2.65121 -0.54292 0.583154 -1.1156 -0.85238 -2.55827 -4.07309 -1.69475 0.928125 0.554546 -0.767666 -0.434905 0.473291 -0.914112 -0.127754 1.8 -0.821725 2.223 -0.366148 0.102018 -0.220231 1.93195 -0.591766 1.31479 0.0370385 2.31459 0.840827 0.0553022 -0.712334 -0.27125 0.659482 0.913762 0.0597767 -0.446159 -4.10088 -1.42199 -0.0541417 -0.961614 -0.0598192 -0.387257 -0.207419 -1.45256 1.76291 -1.32953 -0.125922 0.60996 0.065881 1.82562 -2.37834 -1.70131 2.02948 0.272939 -1.41738 2.23946 0.683864 0.789786 2.13226 0.722134 -0.126699 -2.2282 2.34247 -1.25206 -4.84844 -1.28664 -0.557522 0.793093 -0.717525 -0.268176 -2.75631 -0.811814 1.13416 -3.18989 1.57181 -2.06228 -0.549134 -0.326685 0.834206 0.285063 -1.56289 -0.267522 -0.12605 1.34856 -0.137835 1.33032 -0.317065 0.649955 0.134768 3.02431 0.322517 0.0404561 -4.05608 -0.318496 -0.666305 -0.752361 0.576474 0.690148 -0.763055 -1.96673 -1.28342 1.18272 -0.719831 1.54049 -0.178699 1.38939 -0.364675 -0.188597 0.179051 -2.80722 -1.00444 -2.30999 0.97857 0.00220226 -1.88588 1.69565 1.32497 -0.521419 -0.523106 -2.17897 -3.47831 -0.7059 0.88824 0.459981 0.500063 -0.659007 -0.685961 -2.13648 2.19768 0.839082 -0.791027 1.55306 -1.98696 -0.36394 -0.0833656 1.79245 0.466916 -2.94028 0.448554 -4.3147 0.252561 0.288246 1.96598 -0.605417 -0.872216 0.131769 -0.116401 3.43102 -2.22697 -0.26304 -0.899269 0.154457 0.399103 -0.527414 -0.28339 1.38356 -1.43489 3.02089 0.456875 1.16221 0.458707 2.72967 -0.792411 -0.980886 -2.40455 -0.689757 -3.66139 -1.86282 -0.914011 0.0499186 -0.161101 -1.10872 -0.134016 1.99092 -0.324287 -0.176019 0.651847 -0.18562 0.940429 -0.545171 0.359837 -0.505577 -2.6785 -0.524116 2.1851 0.506093 1.29443 -0.843675 1.26964 -1.37473 0.626859 2.05949 2.02583 -4.78468 -2.35122 -2.78884 1.9732 -1.08264 -0.898405 2.13608 -0.183835 -0.0244556 1.35658 0.231406 0.0705497 0.318111 0.429366 0.980678 -0.0610057 -0.581587 -2.39199 0.00277363 1.105 -1.80765 2.3318 2.36515 0.821489 3.79572 -1.46547 0.406298 -1.6194 -4.83267 -2.1641 0.625326 -2.20581 0.437412 -0.19324 0.138083 0.113204 0.515117 2.35919 0.553706 -1.29635 -0.236974 0.770522 -0.628728 0.359759 0.891115 -2.19252 -0.441486 1.73342 -0.277218 0.582067 0.589616 0.649621 -0.297415 1.10364 1.10105 -4.31147 -4.17044 1.37255 -1.60403 0.969354 0.598748 -1.84795 -1.03147 1.97752 -0.994839 -0.935232 0.367636 -1.24208 -1.32287 -0.568653 -0.444743 -0.629068 0.130792 -0.495432 -0.0313611 2.19053 1.99507 0.0493828 -0.0854255 0.779304 2.03916 -0.0377753 -2.08265 -1.55296 -3.82847 -1.00528 0.176515 -0.629348 -0.0280658 2.11687 1.04581 -1.39347 0.0537458 0.291481 0.352919 0.0338808 0.407472 -0.946533 0.530608 0.491049 0.47251 -2.45307 -0.43461 -0.305002 -0.32735 0.0265862 1.3677 1.09412 0.47197 1.20541 -2.64264 -3.26497 0.713367 -1.57792 0.195987 -0.976965 -0.313246 -0.882628 -2.09165 -0.414906 0.300427 -1.27254 -1.0397 -0.162673 0.330394 0.771544 -0.43654 0.77317 0.365177 -2.71303 0.258642 -0.850816 0.679119 0.490845 1.62748 -1.2711 0.577629 0.780502 3.52754 -5.02368 1.08978 -0.781314 0.77427 -1.22975 0.937502 -1.74272 1.70909 -0.337834 1.11096 -0.482543 0.875474 -0.602063 0.497712 -0.15502 -0.413959 1.61736 0.321702 -1.13291 1.53187 -0.148474 0.119118 -0.953386 0.785385 -0.327091 2.683 0.253794 -0.545258 0.821756 -3.5245 1.33692 -1.50473 -1.92595 1.24171 1.19594 -1.76538 2.29132 -1.93748 -1.81347 -2.04206 -0.738963 -0.624609 -0.197735 0.022638 -0.758687 -2.03599 -0.323515 -0.985072 0.108422 1.19276 1.30443 -1.34629 1.71934 -0.931516 2.68333 -0.644945 1.57351 -1.73421 -0.770663 1.78681 -2.45288 -1.57658 -0.882632 -1.91635 -1.0604 1.48191 -2.637 -1.78901 -0.465844 -0.884056 0.905741 0.451189 -0.972103 -1.20132 -1.5184 -0.997571 1.66979 0.371133 -1.31301 0.428633 0.143027 0.643977 1.0104 -0.746167 1.80032 -0.722794 0.902687 -0.935493 1.12271 -1.79026 -0.307849 1.50874 0.447149 -0.685634 -2.25953 -1.49804 -0.538108 -0.733728 0.18387 -0.889251 -0.0470456 -0.39681 -0.542683 -3.20268 -1.81882 1.3845 -0.00926733 -0.364958 -0.115375 -0.00354259 1.04958 0.407732 1.20448 -0.0267501 -1.73556 -2.77949 3.22364 -0.508384 -2.32639 -3.31591 -0.435996 0.464718 -1.09974 0.0536101 0.661396 0.554023 0.362718 -0.481155 -0.643265 -0.252836 -0.860957 1.01045 1.51441 -0.878416 -1.64682 -0.531216 0.601524 0.60819 1.0933 0.783316 0.157061 0.473402 1.05965 -1.92386 -0.0815278 -1.82388 -0.700489 -1.14244 -1.58248 -1.30438 -0.509626 -0.030944 -0.170866 0.918867 -0.651776 0.29114 -0.0494211 -0.929275 0.567294 -0.388219 -0.482021 -1.21099 -3.45147 -3.03021 -3.60995 -5.37472 -4.79323 -6.75072 -7.41247 -3.42834 -4.95488 -3.67462 -5.54008 -3.30282 -2.06431 -1.41971 -2.3927 -0.242186 -0.148966 -0.0754738 -0.81548 -0.0861772 0.821089 0.764083 -0.834056 -0.0827921 0.600757 0.448254 0.625298 -0.366933 -1.14752 0.0533121 -2.05805 -1.36707 -1.16987 -0.252753 -1.05322 -2.0624 -3.16619 -2.56011 -1.88929 -0.421509 0.23785 -0.938972 -0.731244 -1.77056 -1.04517 0.581823 -0.383428 0.918333 -0.534269 -0.0837224 0.00685489 0.181968 0.907443 0.715419 0.115107 -0.08606 -0.807522 0.88905 0.211303 0.115253 0.612635 0.534682 -0.736792 0.554388 0.369095 0.142352 -0.856772 -0.681737 -0.811445 0.25701 -0.123552 -1.46013 0.611505 -0.874574 0.873493 -0.151936 -0.105243 -10.7395
-0.482632 0.455393 0.698077 0.484476 -0.933391 -0.386028 0.917965 -0.760457 -0.289262 -0.112243 -0.286586 -0.216451 -0.967343 0.0636984 -0.629535 0.690715 -0.197481 0.0725491 0.858583 0.36054 -0.80077 0.218355 0.890603 -0.803044 0.738977 -0.815945 -0.0916752 -0.888068 -0.346598 -0.826935 -0.534512 -0.525653 0.228929 0.679026 -0.933851 0.0432593 -1.0409 -0.0296677 -0.169576 0.299661 -0.863903 0.0886908 1.04298 0.693439 -1.56104 -0.0303355 -0.493628 0.542178 -0.73789 -0.247547 -0.975928 -0.0179505 -0.769031 0.963279 0.236961 -0.510697 0.948512 -0.251354 0.98069 -0.908681 -0.181892 -0.379865 -0.674091 0.634252 0.146344 0.452003 -0.209057 -0.11065 -0.0390477 -0.680965 0.314241 -2.13618 1.01944 0.425354 -1.35985 -0.900477 -0.574497 0.332673 0.261431 -0.269271 -0.514397 0.266881 0.331718 0.853758 0.0346171 0.70788 -0.0451239 0.0207603 0.108062 -0.256122 -0.429021 0.553242 0.0488312 0.838385 0.196407 -3.7041 -3.51523 1.67308 -2.48772 0.0960132 -0.404585 -1.19238 -1.88459 -1.21986 -1.69401 -0.982274 -0.149858 0.413793 -0.0613927 -0.602046 0.777961 -0.23648 0.937943 0.394283 1.1757 0.882791 -0.38718 -1.71866 0.910531 -0.363887 0.0686644 -0.311714 0.536364 -2.13033 -0.438475 -0.888017 -1.44578 -0.620066 -0.128664 -0.468988 -1.56177 -0.302135 -0.254445 -0.516241 -1.23858 -0.529471 -2.75443 -1.90887 -0.367576 -0.349961 -0.251408 -0.35119 0.548576 0.467679 -0.496666 -0.437679 -1.19444 0.587456 -1.7775 -3.76449 -1.59365 -1.83695 -0.778648 -1.09814 -0.505127 0.607258 -0.517799 -3.41216 1.06905 -0.828297 -0.661206 -0.279432 0.909946 1.22299 0.974154 -3.33524 0.101954 -1.09632 0.39915 -0.702341 0.935994 -0.478774 1.14762 -0.315666 -1.16697 -0.8079 -3.97057 -3.13539 0.619994 -0.712568 -2.1883 -0.519598 0.255703 -3.59894 0.305143 -0.327991 -0.716852 -1.8302 0.539185 0.656802 -1.98435 0.926715 -2.4448 -3.50589 0.0433185 0.95357 -0.450353 -0.83888 0.184255 -0.518406 0.697073 -0.873278 -1.47752 -0.912515 -2.09453 0.672226 0.106146 0.0555277 1.78713 -1.92717 -0.84415 -0.287647 -1.00285 -1.73474 -1.69055 1.24163 -0.33238 0.371767 -1.21836 1.29566 -3.33886 -2.44032 0.48239 0.247634 -0.332985 -0.45206 0.843514 0.925756 0.689974 -0.802051 -1.67258 -0.492282 -0.585747 -2.79387 0.767689 -2.41293 -0.131651 -0.104093 0.565966 -1.03273 -1.72429 1.71576 0.101702 0.0272985 -1.02181 -1.65229 -1.38394 -1.14317 -7.53498 -1.30332 -0.374695 0.277994 0.352485 -0.103555 0.755538 -0.467049 -0.245483 -1.24759 -1.42979 0.092764 -2.03372 -2.44238 -0.92617 -0.0704275 -0.500602 0.407199 0.114522 1.63593 0.854633 -2.51205 1.03489 -1.70919 -1.28458 1.28226 0.740571 -2.01602 -4.42315 -2.02209 -0.492076 0.804727 0.244462 -0.997162 -0.448885 0.88587 -1.21101 -0.164843 -3.48317 -3.08023 0.519535 -1.25823 2.2406 1.99841 0.0546359 -0.906 2.22714 1.34987 0.969489 0.175727 -2.38589 1.44695 -2.03697 2.28478 -1.53666 -2.52989 -2.41836 -0.900966 -2.12961 0.346926 0.392965 -0.128139 0.599445 0.314889 0.0404185 -0.161939 -1.62377 -1.17917 -2.03532 0.365753 -2.07742 -1.95959 -1.71508 2.10954 0.622981 2.35833 1.23953 0.666507 0.759541 -2.37281 -0.853357 -0.486075 -1.62405 -1.25951 -1.54085 0.325161 0.0636852 0.772481 0.237652 -0.347282 -0.77943 -0.223115 0.453441 -0.352862 0.389294 -1.09167 -4.31937 -0.866602 -0.311327 -3.58722 1.53077 -0.040371 2.40792 0.971972 -1.03238 0.744961 -1.97621 0.725723 -0.977777 0.736893 -1.20069 -0.547433 -0.821058 -0.809406 -0.394449 -0.512671 0.90429 0.12113 -0.41724 0.819551 -1.11211 0.0165914 0.796022 -0.302392 1.53375 0.602232 -0.858012 -0.132568 1.09282 -0.355618 1.59763 0.675653 0.735777 1.85013 0.450719 -3.58888 -0.702947 1.67721 -1.66879 -0.50967 -2.55869 -1.59889 -1.88622 0.0352239 -0.877843 -0.0529525 0.813025 -0.612195 0.732 -0.62124 0.780185 -0.252411 -1.65538 -0.660317 -1.15616 -0.956586 0.126454 -0.213729 1.9224 1.39243 -0.236167 -0.0853801 -3.5388 -1.30304 -0.354424 -1.70805 1.732 1.76985 0.752955 0.20096 -0.357015 -0.413711 0.360697 -0.599361 -0.85571 0.860684 0.239091 -1.09158 -1.23244 0.119437 -1.16443 -2.24032 -2.25951 -0.233839 0.551287 2.26012 1.11257 -1.1907 1.70808 -2.3198 -0.447913 -2.15697 -0.361517 -0.289498 -0.282967 0.0181893 -0.448029 0.208868 -0.348044 0.304616 0.182054 0.643438 0.336253 -0.203352 -0.212935 -1.48575 -0.0223355 1.40194 -0.384865 2.20739 -1.1114 -0.305337 -0.72939 0.161705 1.17781 -0.690823 1.48279 -1.7753 -1.99262 -3.20484 0.0975453 -0.448384 0.303575 -1.77414 -0.975246 -1.47509 -0.611098 0.52999 -0.874728 -0.958758 -0.518627 -0.732374 0.391936 -0.621712 -0.909932 -1.49288 0.314685 -2.15712 1.16521 0.525213 -0.334275 1.30543 2.03918 0.152373 -0.640061 -4.1657 -0.302176 0.320538 1.00576 -1.36444 -0.863859 -1.66152 -0.220721 0.359272 0.590543 0.559422 -0.239264 -0.579846 -0.716644 0.509055 0.176584 -2.95662 -4.68921 -1.95511 1.01416 -0.543144 -1.54062 0.114163 1.05703 -0.378833 0.73473 -2.15488 -3.86454 0.524816 0.650762 1.43916 0.368037 -1.56811 -1.93149 -0.081983 -0.452983 0.165026 0.20823 0.158059 -0.0855502 0.0111461 0.927628 0.881414 -0.230279 -4.9116 -1.49069 0.902604 -0.523749 0.670785 -1.85042 -1.10357 -0.594546 1.75794 -1.37677 1.76695 1.13432 -0.87524 -1.82476 1.4111 -0.246287 -1.84135 -0.8173 -0.164806 0.182036 -0.915432 0.766876 -0.165024 0.229055 0.313596 -0.902357 0.114062 1.85305 -1.61442 0.0237852 0.0774423 1.15682 0.52337 0.812368 -0.230028 0.281545 -2.17126 1.89582 -1.79206 2.26057 2.44949 0.292422 1.47528 -3.1029 0.3567 -1.06386 -0.10397 -0.884609 -0.596293 1.0275 -0.829518 0.407331 0.323544 -0.204366 -1.23456 0.576057 0.389651 0.743304 -0.913207 -1.64925 -1.54211 2.43492 0.21462 0.00956424 -0.78583 0.876578 0.321048 -0.307113 -2.69437 1.4621 -1.82984 -4.04364 -1.44521 -4.29072 0.345155 0.884948 0.506149 0.759827 0.441055 -0.2527 0.264975 -0.898551 -0.714754 -1.21384 4.08524 -0.421521 -0.492962 1.78104 1.14799 -1.1474 -1.33102 -0.649189 -0.509627 -0.0709928 0.147829 1.24552 1.69282 3.1375 2.76952 2.12401 -2.23786 -3.18171 0.463178 0.481355 0.767344 0.156406 0.794554 -0.693262 -0.335618 -0.600808 -0.0275756 -1.03968 1.45294 0.882258 1.82438 -0.0501331 -0.931474 0.122666 -0.435735 0.0870386 -0.131341 -1.62192 0.540953 -0.64873 2.58669 -1.2506 -2.46058 -1.69159 -2.40672 0.0534784 0.183427 0.441858 -0.471398 2.32839 0.836184 0.518565 0.159362 -0.270919 -0.329859 -1.54216 0.0892979 -0.691041 0.169891 -2.47291 0.318393 -1.42068 -0.646403 -0.223003 -1.77039 -0.320439 -0.870383 -2.88638 -1.95127 -1.13036 -0.101593 -2.07703 -0.608529 -0.789909 -0.542662 -0.907456 0.178289 0.942743 0.493673 -0.992279 0.217977 -0.64284 0.143448 0.00408884 -2.01628 -2.29273 -1.79864 -3.71948 -2.84955 -4.51262 -3.98684 -2.34186 -3.89165 -3.07942 -3.85783 -3.50416 -2.92489 -2.86201 -1.01948 0.787764 -0.173458 0.032935 0.866641 -0.466017 0.444368 0.754798 -0.934197 -0.256163 -0.148108 -0.997233 -0.81222 -0.576685 0.73218 -0.601905 -0.550698 -0.0205333 -0.212388 -1.28355 -2.23648 -3.81879 -1.65601 -2.34863 -2.66844 -0.836749 -0.668635 -0.999384 0.306903 0.974495 -0.193649 -0.247016 0.790345 0.932295 -0.869835 0.583759 0.370955 0.351378 -0.53786 -0.510221 0.077737 -0.567086 0.546069 -0.668269 0.491095 0.843402 0.442165 -0.421021 -0.0491235 -0.0944735 -0.612676 -0.0123145 -0.589235 0.553443 -0.0882996 0.17661 -0.142668 -0.724454 0.94974 -0.146192 -0.398352 0.68571 -0.84206 0.636067 0.453756 -3.27225
-0.795173 0.950848 -0.687233 0.564179 -0.391603 -0.50591 -0.849282 -0.926878 -0.150674 -0.186156 -0.784765 0.755502 0.136412 -0.136047 -0.506873 -0.431828 0.192866 0.870604 -0.764949 0.544531 0.951768 0.221973 0.865122 -0.994646 -0.216406 0.86301 -0.515643 0.347675 -0.499204 -0.551066 -0.0332129 -0.950494 -0.920014 -0.985063 0.279252 0.855254 -0.269999 0.114061 -0.465482 0.196861 -1.27462 -1.37678 -0.370892 -0.989368 0.427387 -1.3839 -0.324348 -0.999331 0.00389433 0.295633 0.539903 -0.253921 -0.285151 0.336468 0.243331 -0.0862307 -0.42286 -0.829866 0.7488 -0.533652 -0.775238 -0.845158 -0.611111 -0.664851 -1.10165 0.68569 -1.56932 -0.521877 -0.654372 -2.47246 -2.43928 -1.58693 1.04057 -3.85484 -2.22178 -2.55158 -1.5411 -1.80132 -1.40721 -0.597162 -0.322162 -0.1172 0.864788 -0.823503 -0.569204 0.204458 0.716669 0.428753 0.605855 -0.504904 -0.522509 -0.109256 0.436585 1.18802 -0.180886 1.25209 -1.45118 2.52671 0.44579 -2.19623 1.66673 -1.37451 -0.254407 -0.974775 -0.839394 0.423638 -0.831567 -0.318718 -0.246231 0.694096 0.429271 -0.935453 -0.163782 -0.0867177 -0.654211 0.577376 -1.0079 1.06041 2.13309 -0.377337 -0.554683 2.35411 -1.10116 1.12334 -1.48236 1.36971 -0.213477 -0.4435 0.370658 -0.700145 -0.273098 -0.125335 -0.771879 -2.33629 -0.784042 -2.52158 -3.36113 -0.334529 0.37739 0.357444 0.839015 -0.931858 0.419912 0.940513 -0.375166 -1.69434 -2.61083 -0.415605 1.5579 -2.18244 1.75099 0.692459 0.421595 0.553137 0.216607 0.263031 0.776414 0.459915 0.54662 -0.410874 0.142369 1.07067 0.771246 -2.35512 -2.28313 0.534858 -0.522962 -0.613933 0.747114 0.275712 0.397167 0.286359 1.27047 0.695601 1.22853 -0.0323148 -0.771291 0.114862 -0.767405 -0.146146 0.24422 0.292924 0.633526 -0.433724 0.883145 -0.725478 -0.362803 -0.523805 0.404022 -1.22363 -0.395743 -1.81114 -0.237996 -0.634737 -0.437977 0.041738 0.155418 -0.254625 2.99267 0.0682986 -2.5902 0.0731459 -0.0614443 0.643761 1.564 -1.19043 0.213646 1.12528 -1.48023 0.0986905 0.0717285 -0.124858 0.189665 -0.659803 0.741568 0.246291 -1.29875 1.01398 0.290963 -5.12227 -3.24598 -1.41953 -0.0592002 -0.0945504 0.733531 0.915056 -1.31882 0.433645 -0.0847034 1.57116 -1.27775 -0.296297 0.536098 0.451641 0.699069 0.490099 0.260286 1.28656 -0.418479 -0.251339 -0.700369 -0.0475443 -1.15062 -1.18772 0.365231 -0.346606 0.150685 -0.406782 -6.22089 -1.03841 -0.817205 -0.671026 0.799684 0.431102 -0.0512345 0.0665148 -0.675717 0.518659 -2.94142 0.21872 -0.611989 -0.370193 0.618941 -1.50969 0.906282 -1.28463 -0.155905 0.484612 -0.0595995 0.0273965 -0.209495 0.97019 -1.55285 -0.955656 1.20243 1.07748 -2.02221 -1.03869 -0.325477 -0.79262 0.109171 0.131198 0.779573 -0.812938 -0.31946 0.469845 3.02339 1.90636 -0.600314 0.925674 0.864537 -0.0471662 -1.27968 -0.967853 0.833769 0.185583 0.0457942 1.33209 0.197064 -1.53587 0.280232 1.22306 -3.56871 0.0812995 -1.21671 -1.29724 -1.62794 0.985473 -0.339502 -0.676593 0.354634 -0.325292 -2.66509 0.185477 1.89032 -1.44609 4.8067 -0.442962 -1.14403 -1.44076 -1.41189 -2.83562 -2.65846 -2.00517 -1.49967 -1.2803 0.526696 1.84717 -2.63789 -1.19691 0.621521 0.579555 -1.07092 -0.555533 -0.681856 0.0629795 -0.675285 0.783109 -0.49095 0.0269294 -3.09537 -0.0846002 -5.53608 -9.63212 -8.56878 -8.045 -6.09043 -3.22309 -4.38448 -2.31607 -3.07778 -1.15889 0.118082 -1.84799 -0.553898 0.148083 1.66246 -0.923797 0.182399 -1.54762 -0.868127 3.23959 -0.780139 0.488103 -0.034837 -0.0176938 0.459518 -1.504 -4.43494 -8.98308 -13.7159 -12.4711 -7.03949 0.498881 -0.370075 0.219326 1.75297 0.243625 0.396511 -1.89808 -0.757812 -0.898057 -0.815001 -1.83286 -0.916839 1.62974 -0.610074 -0.691686 1.4953 5.82176 2.499 2.35281 0.843438 -1.00393 0.59728 -0.121326 -3.01359 -6.5588 -0.643856 3.27789 1.79793 -0.241032 -0.319929 -1.54561 -0.921432 -0.140862 -0.690173 -1.14398 0.822405 -1.75236 1.10087 0.0361354 -1.54087 -1.74903 0.0113137 1.97613 -2.00472 0.691234 3.31531 0.720594 0.473706 -0.581478 -0.774448 1.1326 -1.8503 2.54813 3.00125 -0.264578 0.68556 0.683445 1.0699 0.506015 0.199505 0.947899 -0.319885 0.458596 0.0534614 -0.441619 -0.995633 1.03839 -1.42046 2.11686 -0.489135 -1.48984 1.44732 1.16135 2.90514 -0.199509 -0.551173 -0.771456 1.59172 -0.111476 -1.18564 -1.07883 2.00507 2.02408 0.344797 0.336282 0.866487 0.13865 0.802134 -0.464079 -0.781422 -0.766332 0.0956312 1.31993 -0.792568 1.0765 -2.16876 -1.10831 1.76336 -0.167794 0.867219 4.4534 3.97322 0.998564 0.279245 -0.55037 1.44948 0.341874 0.237584 -0.354191 1.03496 0.280898 1.19483 0.693243 -0.0607508 0.995779 1.0315 0.643941 0.697143 1.40586 -1.53462 0.270552 0.344425 -2.09441 1.02889 -0.0459391 0.227234 0.194542 0.33205 1.31279 2.08126 0.50437 -0.491592 0.839609 -1.05521 -2.2327 -0.578205 2.95093 -0.712141 1.54328 0.999453 0.531388 2.09329 -0.265199 2.41248 0.917695 -0.298482 0.115175 2.11864 -0.377466 0.592511 -0.617338 -0.136995 0.176154 0.693369 2.13231 4.59081 3.04702 0.936175 0.245531 -0.470509 -0.983198 -0.863916 1.17812 0.0917241 -0.380747 -0.0399091 0.850546 -0.169861 1.59205 -0.446103 0.421083 0.0886074 1.13233 0.323979 -0.324672 0.663229 -0.0223989 0.179024 -0.00449677 0.748245 1.11865 0.12512 -2.98751 1.77277 1.4518 0.593933 0.108855 0.0224435 0.663985 0.537022 -1.62129 2.05093 -0.152321 1.25895 0.582521 1.1245 0.0665867 0.494662 1.56762 0.78417 1.16231 -0.447111 -0.13023 1.35215 -1.46309 0.612513 0.681662 0.542117 -1.41298 1.53608 3.47116 2.28587 3.11677 0.0194928 0.123149 0.278883 0.460929 0.465274 -0.493907 -0.0532311 -0.18292 0.817024 -0.511213 -1.18532 0.895251 1.60943 -0.202825 -0.615369 -0.110238 -0.814435 -0.0163906 -0.19447 1.05631 0.762103 0.179356 -0.113284 1.1394 0.621587 2.57554 2.40782 2.82121 -0.948778 0.946033 0.509764 -0.875938 0.798398 -0.022316 0.102326 0.657024 -0.266331 0.946173 0.906296 0.484414 -0.977787 0.739848 0.649688 -0.499672 1.99608 -2.30781 -0.18071 0.706983 0.468629 0.17268 1.51372 -0.619543 -0.322638 1.37203 4.04869 2.93023 0.498952 0.767637 0.0379798 0.938336 -0.879058 0.352937 1.15166 -0.0943776 1.70395 -1.23104 -0.731953 0.612541 -0.0751657 -0.241349 0.44798 -1.70669 1.4864 -1.04746 -0.472934 -0.415313 2.28851 1.2612 -0.136933 1.97289 3.61505 1.59638 2.15934 0.423188 0.62028 -0.385654 0.105163 0.969545 0.697368 -1.56007 -0.482919 -2.10115 -4.93969 -0.604871 1.27476 -0.602477 -2.38763 0.817343 -0.0743624 -0.414993 1.15634 -0.00910291 -0.516778 -3.66078 0.214781 3.34345 -1.04537 1.76625 1.46908 1.47303 3.87988 0.943476 -0.312574 0.787546 0.27678 0.150123 -0.438284 -0.628473 0.640207 -2.64448 -0.671876 -4.30251 -5.45474 -6.32137 -3.49122 -6.46625 -5.1205 -4.38425 -4.85349 -4.12336 -3.46373 -5.05503 -7.11716 -5.21081 -0.85212 -1.40908 -0.915724 -1.30883 -0.59195 -0.495454 0.0408569 -0.558943 -0.300205 0.419401 0.412821 0.539268 -0.951873 -0.280061 0.207974 -0.936777 -0.926728 -1.07754 -0.891159 -3.00534 -0.0387661 -0.67573 0.232014 -0.060562 -1.61325 -0.980108 -0.280005 0.602019 -0.921276 -1.19387 0.176187 -0.879329 0.502065 0.796385 -0.688044 -0.762135 -0.147995 0.191167 0.785414 -0.290358 -0.792843 -0.932457 -0.96381 -0.834317 0.180633 0.530069 -0.280286 0.63876 0.555612 -0.34898 0.815014 -0.512151 -0.402071 -0.0304081 -0.228011 -0.695438 -0.0274608 0.228835 0.105655 0.479016 0.967708 0.407931 0.39466 0.864159 -3.12543
-0.220903 0.203427 -0.472465 0.190395 0.889251 0.473971 -0.728903 0.451567 0.440532 -0.441657 0.85079 0.594508 0.329331 0.808879 -0.153891 0.558818 -0.602018 0.698766 -0.265049 0.697443 0.413744 -0.504764 0.299068 0.654102 0.855952 0.437962 0.733722 -0.353269 0.632301 0.349366 0.822902 0.346381 -0.447326 0.604712 -0.260953 -0.999879 -0.240234 0.293965 0.119863 0.345457 0.336277 0.154547 -0.849418 0.045446 -1.03757 -0.712943 -0.201555 -0.397382 -0.382944 0.511735 0.884369 -0.314158 0.77653 0.207299 0.720621 0.242785 0.306 -0.402773 -0.311422 -0.0781812 0.0976986 0.369598 0.630447 0.5473 -0.813169 0.14999 0.127308 -0.801073 -1.16572 -1.04475 -0.661007 -2.62913 -1.72068 -2.79781 -3.28214 -1.57401 0.112919 0.297239 -0.194261 -0.878256 -0.660369 0.771593 -0.703242 0.796222 0.546518 -0.888037 0.135386 0.90191 0.972574 -0.548087 -0.549196 1.54886 2.12454 0.241636 -2.50354 -0.499349 1.66753 0.42386 0.683942 -1.04212 -0.529095 0.947896 -0.316955 -1.86354 -0.830418 -1.90678 -0.521453 -1.5301 -0.629652 0.542474 -0.790528 -0.443342 -0.766883 -0.721733 -0.282971 0.714084 -0.470772 -0.399663 -1.74252 0.973231 0.391238 2.28159 -0.448823 0.366474 0.110805 1.19907 0.142569 1.25199 0.61982 -0.906963 1.14657 0.837955 -0.353321 -1.43776 -2.62809 -2.86881 0.216119 -0.332851 0.172209 -0.393494 0.138574 0.96082 0.0282529 2.22063 3.30996 1.41975 2.41685 0.240953 0.590371 -0.432884 0.326567 0.742724 0.638925 -0.870863 0.0314135 0.0240096 0.612443 -1.07867 -0.769534 0.0997006 -1.38199 -1.62409 -1.32359 -2.45111 -0.918911 -0.578741 0.831946 -0.709129 -0.481245 -0.561799 0.953125 2.68415 0.0498429 -0.47609 -0.0121267 -1.72626 1.17805 1.29824 -0.414472 1.22309 -0.562061 2.04492 -0.967731 0.271283 0.601921 -0.364121 1.82226 -1.57301 0.968468 1.53761 -1.99387 0.233031 -0.851503 -1.05636 -0.000172525 -0.478178 0.572377 2.35998 -0.196149 0.826158 -0.932875 0.283918 1.0743 0.732583 -0.642371 0.424842 -0.94094 -0.135669 -1.17617 0.152075 1.15055 0.665596 -0.432624 1.21914 -2.08826 0.548999 -0.630293 -1.82745 -0.848802 -1.71819 -3.5794 0.283081 -0.339833 -0.253788 -0.897894 -0.333537 -1.19278 -0.544755 1.1852 1.96977 -2.07272 0.800269 -0.234736 -2.2893 1.65452 -1.3462 2.6707 0.412924 0.451702 -0.0353541 0.230598 -0.953273 1.36994 0.778199 -0.631794 1.03376 0.527468 -2.57175 -4.94081 -0.435287 -0.4167 0.953524 -0.129299 -0.991923 -0.0359068 0.610137 1.74069 -0.314451 0.370214 -0.0850151 -0.665655 1.29854 0.91199 -2.72146 -2.13074 -0.410089 -1.01896 1.27694 0.171073 1.49715 0.265206 -0.00366384 1.05583 -0.781627 -0.125294 -4.8005 -4.45296 -1.02776 0.398728 -0.692841 0.76615 -1.0062 -1.72941 2.88101 0.271703 0.142819 2.9841 -0.518331 1.09561 -5.23302 -1.85082 -1.00026 -2.98353 1.84445 1.40054 -0.329942 1.91214 0.362902 0.614777 0.869292 0.52629 0.60206 2.59683 -2.94485 -5.3549 -0.378639 0.82628 -0.351908 -0.389907 -1.18795 -2.99536 0.796471 1.4314 -1.65042 -1.40301 -2.64134 -2.70095 0.834135 -2.42115 0.35361 0.476424 0.217107 1.58931 1.35083 -0.454304 1.36572 0.016607 1.20531 2.14708 1.05745 1.74417 -3.99966 -2.38539 -0.63151 0.898509 -0.160287 0.388175 -0.289509 -0.565538 -0.954625 -0.886838 -1.83307 -4.23106 -1.99063 -2.74209 0.102777 0.234954 -0.95855 1.85175 -1.74012 1.80117 0.807206 -0.135642 0.249185 0.511684 0.555077 -3.07944 -3.9299 -4.11995 -3.73337 -1.47298 0.395178 -0.257925 -0.804681 0.533024 -0.771238 0.297278 0.329372 -1.99405 -0.0654068 0.974331 3.41352 -1.50364 0.726205 -0.572619 -0.339622 0.642969 0.868512 1.3889 0.327753 2.68219 -1.36829 1.25133 -2.47099 -2.14943 -1.56447 -2.34848 -0.217587 -1.80609 0.321717 0.537843 -0.097394 0.885432 0.843293 -1.3258 1.21437 3.09946 -0.800161 -1.00335 -0.631651 -0.656441 -0.0333672 -1.58489 -1.44755 1.73816 0.385084 0.0131027 -0.672975 0.0229074 -1.0685 -0.191543 -1.59039 0.071585 0.146437 -0.202385 -1.05268 -1.79126 -0.486677 0.0421018 0.387303 0.290228 0.633107 -0.494516 -0.115768 -2.68693 0.20095 -2.81028 -1.40173 1.20487 -0.722729 -0.898249 0.0350936 0.29503 0.271036 1.13297 3.10067 -1.99689 1.28798 -1.43828 0.74512 1.76397 2.05958 -0.507796 -0.344497 0.157883 -0.770263 1.75305 -0.327478 -0.372819 0.507522 2.89323 1.29769 1.33038 0.244865 -2.0168 -2.43937 -2.15597 0.866807 0.661906 -0.520355 2.21392 1.58047 -0.443765 -2.84242 -0.218375 -1.5661 1.42642 -0.115615 -0.415371 0.697904 1.81761 -0.555072 1.00075 -1.65933 -1.00365 0.540287 -0.4808 0.176907 2.84111 4.15574 0.510651 1.11894 -1.20182 0.899447 -2.17306 -5.21332 -3.2369 -6.8726 -1.7436 0.613178 -1.58694 -0.0507685 0.533041 1.14506 -1.27115 2.30459 0.901996 0.201384 2.6547 0.220969 -2.42129 -1.25483 0.873257 -0.870577 0.0667957 0.425652 1.46299 5.22627 -1.63955 -1.97865 0.593033 -0.189448 0.062885 -1.14843 -2.07344 -3.78184 -8.82664 -7.48175 -1.92381 -0.484286 0.684676 0.373115 1.06902 0.247566 -0.813449 1.51035 0.446614 0.934125 -4.77087 -0.845596 -0.772447 0.539738 -0.205976 -0.320293 -2.03152 0.59862 -0.311857 2.41305 -0.276457 -1.58475 0.25463 0.297986 0.660712 1.26529 3.34649 -1.28879 -0.731931 -2.5858 -0.325232 -0.227505 0.104184 1.50546 0.450437 -0.373588 -0.331196 -0.970075 -2.35572 -1.43061 0.127854 0.694282 0.0531681 0.898947 -2.64603 3.41343 0.909438 1.85967 0.730558 2.01617 -0.431034 1.30443 -1.03866 0.0302805 -0.427288 0.228868 0.0229609 0.900155 -0.407951 -0.339266 0.87388 -1.8291 0.948661 -0.814077 -1.12473 1.50423 -1.4579 0.223459 0.658888 0.213639 -0.967497 -0.258673 -0.0288318 1.24354 -0.105301 -3.00634 0.52924 -0.144915 -0.303164 -1.47462 1.01268 0.280081 -0.353431 0.186276 -1.04254 -0.290521 0.532055 -0.269763 0.725674 1.0612 0.448545 0.107227 -1.92451 -2.6387 -3.26953 0.372138 0.903555 -0.0738999 0.334333 -0.385387 1.54703 -0.122643 2.42052 1.85663 0.754687 -0.430268 0.548305 -0.0617232 0.452395 0.246157 0.385447 0.275605 -0.240986 -0.771365 -0.380964 -0.237134 -1.30097 0.288518 -0.755969 0.562361 1.32315 -0.587997 -1.16414 -0.781976 -0.774858 0.946192 -0.915272 -0.701003 -0.417517 -2.46773 2.70484 0.689846 1.79803 0.410064 -1.18276 2.41085 -0.209179 0.541334 -0.869636 1.51476 0.0123942 0.455718 0.118353 -0.97342 1.49338 1.46418 -1.49436 0.759461 -3.69192 -2.42097 -1.00424 0.232077 -0.591965 0.181996 -0.190453 0.665887 -0.131106 0.984615 5.388 -3.03945 2.75376 -0.192632 1.5036 -0.478444 0.75993 1.15729 -0.141641 -0.261562 0.34225 -0.725103 0.455404 -0.240366 0.237583 -1.82501 -0.942372 -0.964431 -1.22615 -1.04966 0.530386 -0.452021 0.816497 0.841095 -0.699301 0.545255 0.1175 0.142486 -0.457864 -0.0508142 -1.28525 1.2566 1.404 -0.103477 0.538861 -0.668691 2.31424 -0.447365 1.82834 -1.96897 2.06059 -1.02842 0.48202 -0.654846 -1.25236 -4.10478 -1.32038 0.61803 0.599714 -0.0608237 -0.378139 -0.568081 -0.00313044 0.0292498 0.403571 0.287994 -0.723119 -0.363828 -0.634506 0.331947 -0.472126 -1.13625 -2.37091 -4.21044 -1.51768 -0.324418 -1.3576 -3.00682 -2.99966 -3.86461 -2.28594 -1.18551 0.264701 0.429048 1.01941 -0.316042 0.694615 0.690172 -0.171087 -0.0872575 -0.745002 -0.532583 0.681282 0.525049 -0.880484 0.957309 -0.299458 0.267286 0.839471 -0.731327 0.425913 -1.00406 0.229717 -0.333644 0.250076 -0.0303876 -0.925176 -0.969733 0.0178304 -0.042938 0.0926785 -0.0502441 -0.3198 -0.128234 -0.862806 -0.382684 -0.542185 0.913883 -7.79588
-0.284032 0.332011 -0.129716 0.575257 0.181853 0.0311905 0.444783 -0.267706 -0.364736 -0.257574 -0.342092 -0.453233 -0.960702 0.0937357 -0.918253 0.708274 -0.484357 -0.921595 0.48049 0.502596 0.256628 0.567528 0.539578 -0.210552 0.537839 0.487589 0.713135 -0.221426 0.440639 -0.369226 0.958022 -0.529035 0.797641 0.602231 -0.733035 -2.33913 -1.85697 -1.12442 -2.18683 -0.68441 0.134235 -0.0963151 -1.44116 -1.56518 -0.710164 0.0420452 0.423376 -3.89378 -2.38489 -0.337063 -1.96878 -1.83596 -0.80248 0.245131 0.497212 -0.460799 -0.0946929 -0.47766 0.427436 -1.31894 0.683842 0.626086 -1.25987 -3.57292 -2.16345 -2.3037 -3.76275 -4.08653 -3.70415 -2.37359 -2.20841 -3.07858 -4.25288 -2.26419 -1.33706 -1.38314 0.0401275 0.867268 -1.33362 -3.02966 -0.390701 0.438808 0.654626 0.552842 0.368997 0.467525 -0.165334 -1.89915 -0.631437 -0.177745 -2.29432 -4.0735 -3.17431 -4.07966 -5.72971 -4.73085 -2.80213 -8.72394 -3.9914 -3.91608 -2.99678 -1.56423 -3.49844 -0.0156295 -4.37197 -2.78583 0.758819 1.72907 -1.19913 0.200852 0.258837 0.506521 0.464284 -0.548382 0.779858 0.499115 1.71197 1.57431 -2.03856 -1.62199 -0.98737 -1.41631 -1.0919 -0.472005 -2.65357 0.0447763 -2.0685 -1.2238 1.15511 -1.41141 -1.64389 0.340753 0.170138 0.739293 2.70567 0.115817 -0.329536 -0.658956 -0.925738 0.906922 0.34602 -0.831424 0.580073 1.07722 0.777825 -0.0980549 -0.242983 0.132824 -0.142263 -0.251666 0.117136 -1.03203 1.0158 -2.12713 0.633399 -0.73586 1.10824 0.00381675 0.233332 1.30563 -0.678579 -0.0668247 0.199784 0.122875 0.332344 -0.37103 -3.57178 0.313807 -0.604962 0.514941 0.0565555 -2.2358 1.8579 1.82937 -1.44166 0.574417 -0.393151 -0.462091 -1.18599 -1.32271 -1.71117 -2.16427 -1.13662 -2.66541 -1.88867 -0.858225 -1.88066 -1.05606 -0.465442 -0.118187 -0.015261 1.30763 -1.03986 -0.299399 0.87579 0.560635 -0.199061 0.296973 0.39014 -1.10458 -0.271245 1.43092 -0.509646 0.464681 0.657376 0.0849606 0.596699 0.75446 -1.93525 0.292654 -1.39953 -2.28859 -0.96254 -0.927704 -0.28069 0.597188 0.128653 -0.543589 1.29635 0.187067 -0.458798 -1.40001 -2.23334 -0.277846 0.345252 -0.21505 2.01385 1.40713 -0.333149 1.9405 -0.356709 -0.0536195 -0.960389 -0.67205 -0.759368 -0.563289 -1.5799 -0.691469 -2.07797 -1.26648 -1.168 -0.124567 -0.854371 -0.821901 -0.641391 -0.59762 0.305169 -0.240803 -1.47264 -0.615448 -5.18923 -1.11726 -0.674396 0.500805 1.34974 1.18116 -1.2547 -0.40855 1.35415 0.399812 -1.0926 -0.276021 -1.65682 -0.284182 -1.72364 0.458958 -2.43652 -0.892357 -0.994553 -0.509737 0.286925 -0.473866 0.610802 -0.376518 -1.03607 2.31705 -1.90688 -1.40797 -4.00866 -0.324824 -0.38514 0.851444 -0.717133 -0.276123 -0.629872 -2.32724 -2.56015 1.1787 0.837866 1.45795 0.585286 1.4329 -0.571467 -0.63101 -3.71161 0.585608 0.0252667 -0.126738 -0.843347 0.830647 -1.48292 0.487667 1.70652 -4.18618 4.66388 -3.91451 -2.31787 0.101567 -0.768973 0.797312 -2.60634 -0.901867 -1.0091 2.89487 -1.84138 -1.23835 -0.460795 -0.584677 0.131996 -0.632097 -0.106525 -3.07402 -4.29954 0.166351 0.115364 0.390228 -0.719702 0.350468 -1.51158 -1.19504 -1.24233 -0.597634 -5.75109 -1.54161 -1.78504 0.0496743 -0.0128453 -0.636293 -1.71748 -0.85351 -3.39591 -0.687193 0.701403 1.25789 1.02929 1.29148 1.70655 2.46943 4.71091 -3.40329 -0.801517 0.925198 1.16619 -0.269545 0.0258816 0.547267 0.406592 0.571678 -1.8393 -2.94424 1.11128 -1.52544 -2.7434 -0.714408 0.232366 -0.333662 -2.2522 -1.37986 -0.37124 1.12146 0.293226 0.542936 1.19722 0.858517 2.1162 1.51847 3.43448 -3.67975 0.138605 1.11991 -0.526945 0.857492 -0.287816 -1.45293 0.35567 1.58571 0.415516 -3.11281 -1.75799 -4.84824 -2.40378 -0.825114 -0.831577 0.52446 0.47419 -2.28323 4.69267 0.976911 -0.958394 2.45493 -0.14632 1.17199 0.494542 1.73388 1.24265 -2.05901 0.0998453 0.55454 1.04156 1.27056 1.49815 1.35738 0.0765287 -0.485932 1.10328 -0.559817 -0.156731 0.729785 -1.30971 0.0737442 -0.851751 -0.217821 0.942925 0.707184 0.278023 -0.296697 1.12866 0.00596865 1.42651 1.20134 0.601582 1.30429 -0.389697 0.897459 -0.097046 0.263994 1.62487 1.26244 -1.84388 1.65517 0.73578 -2.44603 2.8546 -1.44984 -1.29537 -1.00379 -0.582493 0.524289 -0.881954 0.758415 0.405065 -1.6018 -3.51545 -0.20849 -0.50824 1.12795 2.12623 -0.515001 1.48886 -1.86274 0.918518 -0.220196 1.19999 0.924466 0.417629 0.599869 2.15877 -0.323067 0.898337 3.10149 -1.26833 0.8593 -0.404545 -5.40638 -1.94153 0.0148203 0.00501883 0.119728 -0.883005 -3.14203 0.738548 -0.406936 0.884417 0.425624 0.502992 0.952928 -0.289252 0.196776 -1.3222 1.5676 0.476035 0.99637 0.584104 1.04506 0.631563 -0.0337146 -1.35667 1.71884 -1.30963 -0.985966 -5.97049 -1.62877 -0.42067 -1.19266 -0.0726269 -0.582939 -0.439688 -0.882799 -0.637919 0.0710885 1.03828 0.429496 0.469288 0.908607 -0.982404 -2.37782 1.86062 1.87475 1.28781 0.374427 1.06815 -1.87218 -0.458458 -0.866036 0.764039 -0.935058 1.39654 -1.79228 -2.45914 -1.47586 0.756956 0.842175 0.688654 -0.689324 -0.250867 2.90902 -0.475284 0.166704 1.22906 -0.892735 -0.451086 -3.64592 -0.367896 -0.520926 -2.23965 0.948754 0.137578 -1.17453 -1.02294 -0.691725 -1.52967 -0.962573 -1.32472 -0.9065 -6.30757 -2.49415 -2.6244 -1.69642 0.209556 -0.711205 -0.574635 0.392546 0.867938 2.22735 -0.94765 -2.58434 -1.22627 -1.48624 -4.12943 0.45728 -4.4859 1.36369 -2.12212 -2.57584 -0.948279 1.83011 -0.11326 0.539372 0.915722 -1.29533 -0.360393 1.11235 -3.17029 -1.06312 -1.08638 -1.452 -0.842925 -0.28852 -0.0385172 -0.835207 -0.0694195 -1.60099 -2.04736 1.27382 -0.462524 -6.20725 3.3496 0.171817 1.40834 -1.61286 0.491374 0.157179 0.824424 -0.840736 -0.390492 0.128873 0.0363167 -0.967155 0.00968926 -1.78339 1.40534 2.48772 -1.79601 -0.911202 0.0444007 -0.205464 -0.911113 0.193639 -0.933797 -0.622582 -2.88078 -1.30722 -0.0880459 -1.52799 -1.28085 -1.47702 0.345586 -0.703792 0.307187 -0.328903 -2.78825 0.226928 0.479526 -0.352413 0.284529 2.51629 -0.606239 1.2267 1.20461 -0.382679 -1.53936 -2.40043 0.394869 -0.380295 0.633451 -0.775218 -0.155197 -1.96695 -2.28784 0.680698 1.44221 0.194858 -0.579259 -0.123883 0.0357606 -1.19783 -1.40861 0.192365 0.32128 -0.953922 -0.463152 0.68352 0.110355 0.0153855 0.53268 0.590146 -0.554063 0.842882 -0.352228 -0.693997 -0.0209815 -0.915698 0.0988371 0.94296 0.409286 -0.439358 -0.597115 2.32489 3.20125 -3.11356 2.1084 -0.55638 -0.472095 1.56176 -0.107489 -0.970891 0.358566 -0.427974 0.472415 -1.25171 -0.799713 -0.141165 -0.505661 -0.839451 0.476412 -0.172261 -0.457706 1.29334 0.367203 -0.530309 -0.462501 -0.730336 -0.740866 -0.239101 -1.12098 -2.7879 -0.802487 -2.16405 -1.0637 -1.57044 -1.08807 -1.12659 -2.14105 -0.0582955 -1.53912 -0.126468 -2.74835 -0.676801 -0.773805 -2.62038 -0.815322 -1.90637 -4.04254 -1.24623 -1.9153 0.36267 -0.764908 -0.792197 -0.236692 0.514875 0.771045 -0.0180906 -0.723955 -2.67633 -1.91909 -2.59456 -3.13317 -1.66233 -2.70544 -3.5314 -1.43864 -3.33509 -4.16534 -2.01039 -3.07897 -3.34822 -4.60254 -2.90191 -2.90194 -2.38975 -1.13877 -1.19885 0.214597 -0.758707 -0.629767 -0.73813 -0.987593 -0.543734 -0.981431 0.705268 0.0641848 -0.509769 0.62645 -1.76016 -2.25228 -1.18081 -0.325788 -0.404369 -0.241784 -0.160707 -1.44171 -0.49171 -1.00146 -1.01046 0.122147 -0.340625 0.457554 -1.62827 0.471721 0.0855345 -0.404554 0.188757 -0.545964 0.0921787 -3.54171
-0.749677 -0.271431 0.928419 0.696877 0.56177 -0.380732 -0.667351 0.527855 0.105373 -0.103036 -0.172464 0.610842 -0.69703 0.58307 -0.675854 0.6418 0.92694 0.381742 -0.390072 0.515924 0.882879 0.559496 -0.848779 0.502693 -0.0783939 -0.21584 -0.740762 -0.605117 -0.990425 0.940262 0.107532 -0.48738 -0.772212 0.96075 0.444049 -0.795632 0.395508 0.653739 -0.647552 -0.577165 0.709849 0.443429 0.391954 -0.909416 -0.414362 0.720656 0.335919 -0.222668 0.456858 0.849513 -0.315563 0.284537 -0.248823 0.0327263 -0.281787 0.134481 0.233237 0.0729113 0.80082 -0.753034 -0.653614 0.343136 0.750387 -0.685467 -1.17352 0.216763 -0.205468 -1.29702 -1.67606 -1.73885 -2.18476 -3.10077 -1.76857 -2.02042 0.0686538 -1.0391 -0.404795 -1.3764 -0.417481 0.315645 0.602896 -0.286195 -0.047832 0.86768 0.046312 -0.267346 -0.498959 0.645769 0.0300759 -1.11266 -0.63301 -1.43926 -0.751425 -1.233 -1.35602 -2.08764 -0.029951 -0.69488 -0.65194 -0.453281 -0.924187 -0.238893 -0.908633 -0.0694309 -0.304099 -1.10115 0.866842 -3.65806 -3.13269 -0.447892 -0.393427 0.924821 -0.0762931 0.351895 0.449936 -0.680703 -0.388151 -0.388258 0.243303 0.015528 -2.88153 -0.164758 0.0968558 -0.482749 0.4323 -0.624979 -0.570046 0.141281 -0.345629 -0.241525 -0.144468 0.220239 -1.11674 1.13886 1.02187 -1.64119 4.86736 -0.129798 0.74161 -0.233766 0.1431 0.333634 0.902638 -0.113838 -2.35442 -0.986855 -1.70461 0.176455 -0.0340833 -0.387982 -0.247359 0.471116 -0.408312 -0.659153 0.1361 -0.3758 0.586994 0.118607 0.822097 -0.576649 1.76643 -1.40717 1.55364 0.652574 -0.606135 -1.93277 0.0887117 -0.611326 -0.522522 0.587163 0.974413 -0.141205 -0.840805 0.00536195 -1.28232 0.24343 -0.993277 -0.263075 -0.565749 -0.0684742 -0.32412 -0.0113639 0.409872 -0.861828 -0.0506672 0.259188 -0.75883 1.6414 0.733418 -0.12711 1.27337 0.550831 4.3962 -0.914373 2.04281 0.0856848 0.0646721 0.935678 -0.726085 -0.617665 -3.29868 0.767478 -1.41111 0.275948 1.18181 -0.142871 1.32876 -0.704632 0.643464 -0.126989 -0.367766 -0.165365 0.275403 -0.137346 0.998456 -1.39427 -0.0790562 0.797845 3.09533 -0.623335 3.172 0.127966 1.59724 0.953453 0.330366 -0.836976 -0.861404 -0.397419 -6.33377 0.724061 -0.0957888 -0.0341321 -0.793893 -0.0183287 -0.0893889 1.39307 -1.0308 -0.0306206 -0.819418 0.491918 -0.0249138 0.441988 0.210286 1.75911 0.626306 -0.160265 0.340398 5.76815 1.66874 1.73454 0.0640465 0.418468 0.936424 -0.659209 -0.910261 -1.32366 -3.46355 0.110759 0.31906 -1.10265 1.24434 0.0381308 -0.200354 0.941979 0.847044 -0.951303 -1.23305 -2.14227 -1.4716 -1.0562 -0.677386 0.552081 0.367294 1.37169 3.178 2.18698 11.2277 7.42944 1.05981 0.796714 -0.5392 0.426299 -0.246057 -1.00929 1.17708 -1.51489 -0.893651 1.44371 -0.830431 2.34348 0.272754 0.299941 0.796279 1.29001 -0.138517 -0.299646 -1.01809 -1.72791 -3.17832 -4.29747 -4.44766 0.388591 4.88707 6.16012 6.86401 4.83591 1.82494 0.363138 0.509535 -0.652939 -0.339646 -3.65767 0.903578 -2.97454 2.58837 -0.113679 0.749459 -0.905104 0.287014 0.341989 -0.311725 0.301489 0.0782268 -0.861411 0.224447 -0.584138 -0.0464967 -2.65353 -14.772 -19.062 -12.6229 -11.3059 -8.8138 -0.698185 1.97665 -0.0765285 0.288829 0.494518 -0.684592 -0.755372 -0.490765 -0.553969 1.15687 -1.1794 0.727131 -0.113517 0.609729 0.165205 0.394567 0.12059 -0.930192 -0.00275425 -0.843631 -1.24832 -0.26372 -0.64563 4.2982 -4.68857 -14.169 -10.0401 -9.54024 -2.02963 0.056103 -0.378804 -0.908299 -0.0611381 -0.18266 -1.29108 2.21855 1.32555 -0.732401 0.963571 -1.2024 0.528854 0.0952492 0.533126 0.212633 0.204569 -0.569767 -0.184594 -0.971881 -0.164621 -0.313382 0.00242151 -0.858241 0.631305 1.06805 -13.4538 -8.8722 -2.73797 -0.956113 0.826639 0.643981 0.95476 -0.379072 -1.45462 0.00161153 0.58203 0.454651 -0.126658 0.729716 0.223035 0.621159 -0.374974 0.0310896 -0.455653 0.217742 -0.483369 -0.732085 0.0202726 -0.76483 -0.66532 1.47764 -1.46036 2.78351 -2.10953 -4.27327 -1.46653 0.308884 -0.718192 -0.687449 0.219745 0.0812964 -1.60063 0.658537 -0.845824 -0.222637 -0.419224 -0.143507 0.146607 -0.585398 0.130448 1.10625 -0.843764 -1.49238 -0.334806 -0.0836601 -1.50216 0.835593 -0.136283 0.556395 -0.230259 -1.15546 -0.574231 -2.29456 -2.10417 -0.445236 -0.965213 0.697384 -0.226229 0.248245 -0.734384 2.71883 1.74349 -2.34987 -2.83677 -0.32011 -0.749301 0.130627 -0.302119 -0.32585 0.434004 -0.675087 -0.577628 -0.759465 0.529181 -1.97685 0.661147 0.405651 -1.05171 2.15545 -1.15993 -1.94602 -2.16238 -0.0110709 0.00979257 -0.943487 0.577404 -0.827367 0.832024 -3.97779 0.676102 5.09988 -1.91503 -0.908309 -0.164877 -1.44614 -0.123797 -1.89585 -1.6523 -1.90434 0.348933 -0.518172 -0.414544 2.02375 -0.352239 -0.175595 0.155579 -1.70808 0.950646 1.70997 -1.77055 -1.05703 0.365393 0.904431 -0.557781 -0.0798993 -0.622804 2.02931 -0.90876 -1.28634 1.25109 -1.31105 -1.59297 -1.49277 -2.52757 0.264155 0.870309 -0.398392 -0.49746 0.115993 0.897306 -0.947576 0.439001 0.544353 0.723417 0.708434 -1.46419 -1.80643 -2.19026 -0.690456 -0.315983 -0.917307 -0.700167 -0.258702 -3.53926 1.70319 0.48319 0.412902 0.536824 0.579456 0.942664 0.353967 0.0466234 0.282522 -0.589599 0.615843 0.679144 -0.487699 -0.501339 0.0759754 -1.03286 -0.977227 -0.507307 -0.568643 2.19759 2.77923 -2.51968 -0.419221 0.615712 0.832102 0.25892 -0.134521 -2.41843 -1.61099 -0.480608 -0.208302 0.17112 -0.0810377 -0.595565 -0.221154 1.1847 -0.41337 1.2063 -0.595586 -0.464932 0.953841 0.766174 0.213535 1.2144 -0.0944076 -0.355031 1.14525 -0.661473 1.01755 0.398455 -0.899465 0.0834867 -0.35357 0.902975 -0.813329 1.80518 1.93486 0.585653 0.160656 0.539496 0.266826 0.317937 0.313949 0.306968 0.102269 0.53312 0.339698 0.233144 -0.894096 0.0334096 -0.431451 -0.621998 1.20768 1.11845 1.51826 -1.97717 0.751916 -0.695472 0.901266 0.589853 -0.432972 0.431438 -1.67256 -2.05186 0.214913 -2.16611 -0.243174 -0.677484 0.0674808 0.188927 -0.027498 0.074692 1.04344 -0.83564 0.906986 -0.324761 0.515095 -0.476391 1.27788 -0.0825472 0.0830774 -0.168258 -0.289601 1.28823 -0.639185 -0.642894 0.374656 -0.356692 0.602117 -0.622589 0.37689 -0.682399 -0.458159 0.596133 1.02806 -1.18506 0.345087 -0.256865 0.556369 0.343508 -0.393957 0.730083 -0.122606 0.552329 0.577894 -0.701057 -0.659773 -1.33746 1.28731 -1.1547 2.08718 0.564865 -0.480796 -0.798064 0.959872 -0.832006 -0.15478 0.879031 -0.356444 -0.86224 -1.49562 -1.20258 0.922933 -0.149153 -0.980317 1.45133 -0.993318 -0.469318 0.395559 0.222196 0.0507198 0.841949 -1.32465 1.35935 0.38358 -0.581979 -0.330426 0.579919 1.10739 -1.2824 0.978225 0.426195 -0.0181582 0.911975 0.241683 0.917999 0.665965 0.584848 0.269406 -1.44927 -0.723443 -0.116917 -1.51315 0.333753 -0.355593 0.0721297 0.579352 0.230664 -1.61918 1.22383 -0.521125 0.0838934 1.33783 1.79522 0.193842 -1.02812 1.52772 1.97096 2.69909 0.745159 0.690747 -0.0762948 0.0690179 0.0465314 -0.150894 -0.64442 -0.427071 -0.758267 -0.379476 -1.35481 -3.29536 -1.9088 -2.56201 -3.43327 -0.158756 0.927486 -0.539932 -2.9223 1.9913 -1.74563 -1.11849 -1.2412 1.25267 -2.70104 -2.32604 0.356389 0.46563 0.984487 -0.8035 -0.680542 -0.267765 0.503802 0.78528 -0.425242 -0.831123 -0.342511 -0.671045 0.832137 0.207017 0.416791 0.237804 0.58887 0.324581 -0.35518 0.617007 -0.441326 -0.757455 -0.727638 -0.492163 0.226371 -0.26039 -1.31142 -2.06041 0.860795 -0.860371 -0.749692 -0.547017 0.474121 1.73046
-0.0377961 0.09308 -0.496955 -0.0853398 0.753364 0.505837 -0.351454 0.214551 0.849246 -0.794491 0.949574 -0.161687 -0.0850177 1.02462 -0.545892 0.535105 -0.416668 0.525161 0.552667 0.844412 -0.453301 0.458771 -0.238834 0.695969 -0.0428483 -0.197833 0.150222 -0.199711 0.992201 0.914064 -0.535581 0.514987 -0.293122 -0.0572373 -0.47242 -0.00379915 0.188268 -0.187034 -0.0832806 -0.517281 -0.028954 -0.211524 -0.49458 -0.927408 -1.17561 0.691206 0.609011 1.02677 1.79174 0.0385976 0.459281 -0.979713 0.0334774 -0.454963 0.554385 -0.551138 -0.753641 0.210179 -0.0710175 0.775926 -0.762691 0.139486 0.658558 2.27139 0.0633897 1.7711 3.38314 -1.375 1.80768 2.30624 0.650185 -0.112269 0.348091 1.93178 2.81153 0.0245007 0.138898 2.21004 4.95897 1.35922 0.739985 0.418835 -0.424332 0.192266 -0.0100567 -0.636254 -0.986996 -0.60799 -0.634675 0.0239862 0.162651 0.34692 1.68999 -1.01714 -1.13455 1.57566 -1.89075 -0.482104 -1.34301 2.08915 -0.362311 -1.0163 0.393874 0.0899647 2.13525 -0.130467 2.32582 0.896115 -1.54633 -1.31737 0.0607842 -0.0567165 -0.590437 -0.728448 -2.12497 -0.585449 0.0781964 -1.29628 0.299993 -2.00657 0.366148 -1.8131 -1.29756 -0.314519 -0.73404 -1.13989 -0.85914 -1.27946 -0.943473 0.988992 -0.992314 0.448742 -0.883906 -2.80886 -0.139813 0.552819 -2.94653 -1.61074 0.882165 -0.202977 -0.295186 0.957365 0.617221 -0.252591 -3.18555 -1.32784 -1.16645 -4.43484 2.99266 -2.42901 1.53907 -2.7189 -0.0573961 -0.675545 -0.90859 -0.898734 -0.769084 -0.998495 0.0676392 0.367624 1.1447 2.21202 -2.54609 0.949375 -2.69036 -2.96205 0.0835318 0.475437 -0.407485 0.701551 -0.181394 0.485421 -2.26911 -0.785545 1.15442 0.287964 -0.614744 0.534122 -1.19319 0.90247 -0.597558 -1.06861 -1.04952 -0.41635 -1.47968 0.286328 -2.7823 1.09638 0.0450936 1.32781 0.374242 -0.635743 -2.72723 -1.70505 -1.68456 0.515288 0.200942 -0.693109 -0.237283 -0.115522 -0.448559 -0.74225 -0.878289 -0.687891 -0.1284 -0.813293 0.144442 -1.43257 -0.415994 0.474642 -0.772108 -0.318489 -1.47975 0.549958 -0.461422 -2.61374 -2.81463 -4.17238 -0.723721 1.82812 -1.42808 -1.22581 1.3047 -1.10975 0.755237 0.327103 0.247024 -1.08717 -1.58061 -0.646763 -1.95125 -0.80678 -1.03477 0.622049 -0.7222 -0.698803 -1.2809 -1.53313 -1.57848 -0.793062 -2.17078 -0.209306 -4.21862 -6.32791 -2.86062 -6.78244 -6.15575 -7.21291 -4.23591 -2.8939 -0.811615 -1.09855 -0.194183 -0.912333 -0.0665049 -0.763245 -2.36929 -1.48617 -2.97938 1.17213 1.42496 -1.27155 -0.69275 -0.361786 -0.487549 -0.0505607 0.54523 -1.73474 -0.139598 -3.94734 -1.63843 -1.68366 1.98625 -1.44402 0.422263 -1.52624 -5.56328 -3.69041 -2.8527 0.739242 0.601521 -0.757924 -1.20118 -0.185807 -3.4751 0.113839 0.112245 -1.75378 -0.0803211 -0.725027 -0.930304 -0.304968 -0.7765 -0.321398 -1.12859 -3.25948 0.838021 -3.50193 0.893059 -1.7589 -0.398654 0.601197 -1.34293 0.0847531 -1.02559 -3.46552 -1.94793 -0.463017 -0.691444 0.595976 -0.381674 -0.647509 -2.9199 -0.0132532 0.391407 -0.168624 -1.36687 0.311501 0.264519 -1.15519 0.238937 0.568627 1.377 -1.39381 0.19987 -0.450493 -1.20301 0.899353 -0.0973722 0.213267 -1.73891 1.95777 -0.925189 -4.61015 -1.63399 0.671537 -0.373159 -0.0625427 -0.715569 -1.22116 -3.94469 -0.836119 1.20508 -0.0873144 2.11201 0.777517 -1.04517 2.04121 0.539424 -0.691118 -0.358517 -1.00879 -1.11746 0.699243 -1.41828 0.0860744 -1.72433 1.23944 3.16047 -0.627116 -0.18283 -3.39874 -2.45508 1.15717 0.739203 -0.36375 0.944937 -1.14833 -4.53266 -0.38129 1.59688 1.20039 -2.3185 -0.0504076 1.72504 -0.693319 0.607637 1.36131 -2.86114 2.04419 -0.554633 -0.0351286 0.585568 0.892677 -0.806867 1.8735 -2.39223 2.99303 2.81179 -6.17142 -4.48627 -0.506294 -0.769724 0.312117 0.626757 0.271828 -4.25442 -2.65799 1.5214 0.225725 1.3186 1.03745 0.112764 0.819373 0.357705 -0.649079 0.744479 -0.701912 0.891259 -0.468336 -0.762942 -1.04699 -0.12466 -0.209847 2.19024 0.0248858 0.952223 -2.02285 -2.84467 0.502225 -0.505086 -0.413724 -0.374776 -1.3466 -4.07228 -2.17499 0.555634 1.01572 0.542392 0.870651 -1.09903 1.77939 -0.256758 -0.339017 1.32451 -0.507975 -0.186674 0.77992 0.210981 0.255001 1.04681 0.960548 -0.795572 0.535961 -2.12729 -1.12768 -4.87013 0.772728 0.0152709 -0.204541 -0.672344 -1.51185 -1.75639 -1.69307 1.37184 1.97078 -1.7723 1.93132 0.118128 2.45772 -0.241816 -0.756527 1.10034 0.319832 -0.260454 -0.585186 -1.3076 1.26564 -0.672896 0.623099 0.176774 -2.14042 1.46554 -2.82373 -4.07303 -1.37161 -0.793494 0.372459 0.0301876 -1.10727 -1.01737 0.903067 1.52453 -2.21493 1.27815 1.16926 1.39402 1.69089 -0.662406 1.37659 0.548726 -1.2856 -0.89279 -0.17091 0.562172 -0.417303 0.12731 1.6019 0.644849 1.69267 -0.38462 0.142601 -2.64091 -1.15166 -0.815441 0.87755 0.344214 -0.511961 -2.04191 -1.86844 -2.5337 2.32938 -1.18854 -0.391423 1.61127 -0.941292 1.93263 0.332978 0.108724 1.49967 0.773351 -0.858358 1.60212 0.935847 -0.786604 -1.34485 0.980383 -0.597946 -2.75516 -0.513933 -1.12395 0.813893 0.743937 -0.962446 -0.124216 -1.68616 -0.912559 -0.442135 -1.59344 0.549337 2.19152 0.726107 0.983249 2.09572 2.56586 0.0925234 0.0347223 1.34089 0.687236 1.61291 -1.7294 0.214895 0.104183 -1.28536 -0.684553 0.6177 -1.83002 -1.53283 -1.73438 0.040532 0.549608 -0.292504 -0.138552 0.0751955 1.837 -0.199512 0.0126136 -1.72605 -1.2016 -0.00288456 0.870083 -0.207242 1.29632 -1.2138 2.76185 0.134894 0.280265 0.976356 0.955668 -0.015786 1.17982 0.467325 -4.30112 2.83338 0.463968 -1.50634 -0.0792174 0.136463 0.0820912 -0.76667 -0.402612 -1.01158 0.139528 -0.184484 -1.01532 0.988839 0.401136 0.604013 0.29241 1.40177 1.68291 2.45161 0.0935206 2.67916 -0.650946 1.42735 -0.608046 0.547144 -0.828985 0.81794 -1.3977 0.00932934 1.40893 -0.380077 0.688838 0.303008 0.00877261 -0.236052 0.114809 -0.369855 -1.03251 -1.49915 -2.03029 0.0468195 -0.00598036 1.65638 0.728027 -0.574314 0.494791 1.36403 -0.2575 0.428811 1.09755 1.14415 -0.215761 0.828641 -0.717034 -1.40707 0.147411 -2.74425 -1.7954 -0.952668 1.10363 0.00389278 0.586057 0.899592 0.652852 -0.297371 0.858872 0.256877 -1.03228 -0.851709 -2.17086 -2.60709 -0.208273 -1.63373 0.313468 -3.27535 1.19995 -0.192546 -2.19532 -0.724115 0.0856907 -0.277762 -1.12646 -0.914129 -0.386005 -1.17338 -0.911238 -0.894789 0.139984 0.662209 0.491527 -0.969589 -0.293928 -0.54575 -0.141088 0.647295 0.100426 -0.567918 -2.37794 -1.75629 -0.451753 -2.93592 -3.14357 -3.52589 -5.49766 -4.20277 -0.554712 -3.18796 -2.59226 -3.24232 -0.0373129 -0.926538 -0.90631 0.330875 -0.685432 -0.335581 0.330163 0.0537874 0.476805 0.965487 0.176404 -0.749833 0.961582 0.130056 -0.011972 -0.429029 -0.745818 0.0504593 0.0674923 0.461443 0.158262 0.145577 -0.174898 -1.17057 -1.47652 0.381018 0.81333 5.57775e-06 -0.750091 -0.724136 -0.853771 -0.792503 -0.691771 -0.36077 -0.51002 -0.288629 0.185893 0.64145 0.224851 0.00719547 -0.534796 0.0416481 -0.0215598 0.994274 -0.0366696 0.265426 -0.0973548 0.158101 0.593247 0.626984 -0.0956199 -0.736012 0.476185 0.69325 -0.673522 -0.471156 0.0633087 -0.416624 0.648203 0.354299 -0.644567 -0.757677 -0.0701557 -0.641134 0.218159 0.940216 -0.630451 0.253653 0.513531 -0.492056 -0.842016 0.799438 0.892726 -0.3009 -0.0635624 -0.690685 -0.330504 0.952615 -0.777995 -0.773137 -0.138939 0.143852 0.318996 0.500144 -0.811026 0.862778 -0.387467 -0.779938 0.672035 0.0556104 0.292362 -0.734965 -7.99727
-0.587254 0.544095 -0.67818 -0.591415 0.80897 -0.546589 -0.42596 0.996888 -0.641 0.690381 0.999928 0.301076 -0.381616 0.281036 -0.75052 0.196132 -0.0764847 0.904212 -0.13131 0.7175 0.853605 0.221444 -0.73159 -0.726742 -0.817727 -0.262478 -0.814043 0.923109 0.808575 -0.756924 -0.101262 -0.801673 -0.698787 -0.938077 0.186858 0.239392 0.0565291 -0.374132 -0.603197 0.567986 -0.270305 0.748317 -0.319628 -0.470792 -0.523859 0.732621 0.0207825 -0.271129 -0.420553 -0.494546 -0.55572 0.193775 0.759445 0.825341 -0.688475 -0.72978 -0.43882 -0.498516 -0.227723 -0.929111 -0.453826 -0.395552 -0.582089 0.413498 0.518928 -0.813846 -0.392313 -0.6137 -1.2252 -0.0785686 0.0780705 0.446365 -0.968177 0.932266 -0.289552 -0.151957 0.760355 0.0430604 -0.261694 0.74583 0.265004 -0.0628413 0.0292511 -0.572279 -0.72455 0.778941 0.298139 0.44943 0.70898 -0.25126 -0.822722 -0.154938 -0.0984557 -1.59695 -0.836376 -1.59 0.00550918 -1.86383 -2.62187 -1.59931 -1.93822 -0.856737 0.0678831 0.91031 -1.07617 -0.877856 0.463773 0.28845 0.715366 0.0923957 -0.0933919 -0.993597 -0.13134 0.680769 -0.443062 -0.172288 -0.992359 0.0231584 -0.658858 -0.225994 -0.409322 -1.70764 -1.81551 -1.95968 -2.98568 -3.82594 -3.54626 -2.0807 -1.17353 -0.323448 -1.19607 0.0568021 -1.01243 0.110174 0.548418 -0.569686 0.960099 0.405945 -0.34521 0.546482 0.406861 -0.541508 -0.330076 0.722813 -1.52901 -1.05455 -1.4114 -1.33955 -0.715653 0.775834 0.0420399 -3.44489 -1.10023 -0.38643 0.709864 -2.08031 -3.32453 -4.35839 -1.95738 -2.82369 -3.83123 -2.81017 -2.15749 -1.15756 0.141219 -0.104078 -0.273283 -0.922172 0.928102 0.116402 0.445489 1.06397 0.0621492 -1.09681 -0.785277 0.474998 2.57174 -1.14448 1.10574 0.731225 1.23321 -0.797655 -0.424412 0.163782 0.140791 -0.242131 0.375874 -0.973573 0.0472119 0.577924 -0.905499 -2.87663 -0.327665 -0.573857 0.0158705 -0.507046 0.403012 -0.324649 0.644306 3.54087 0.751787 1.00359 0.876394 -0.946175 -0.261274 0.938811 1.21297 0.0184042 0.434966 0.142981 -0.683275 0.377806 0.282092 0.859829 0.69445 0.752714 0.554588 0.0750421 1.35637 -1.12502 1.2498 -1.98567 -1.0423 -0.825338 0.441983 1.42567 -1.02465 0.0816418 -0.153276 2.80624 -1.43048 5.72677 0.17266 -0.55527 0.579618 1.63364 1.23386 -0.230263 -0.31805 0.131964 0.548702 -0.363883 1.07799 -0.802237 2.15606 -1.6548 1.42048 1.2956 -3.06641 -1.95573 -1.85136 -0.827152 -0.336752 0.297421 0.618391 0.751217 0.338844 1.88436 -2.37093 -0.63532 1.93482 0.396733 0.662744 -0.904742 2.98434 -0.533088 2.83855 0.427424 -0.468245 2.39971 0.204383 1.16315 -0.747662 2.08916 -0.427868 -0.0453446 0.26036 -0.626692 -0.759996 -0.548265 -0.862653 0.713086 3.50657 -0.68918 -2.56477 3.11655 1.6238 0.802105 -0.455384 0.215367 -0.570188 0.0683611 -0.952305 2.78411 0.128167 1.39055 1.70879 0.921305 0.404358 0.337897 0.394382 0.250298 0.875778 1.46251 -2.39478 -2.27822 -1.41693 0.833925 0.874074 2.29717 2.90181 1.57785 2.08962 1.13576 -3.63365 -0.1656 -2.74208 0.361157 1.77771 -0.495352 -0.308217 0.12421 0.584891 1.51169 1.13294 -0.0114618 1.50384 2.03472 2.19783 0.456046 2.04765 -1.15269 -3.80566 -0.748243 -0.967715 -0.41914 0.484799 1.74296 2.79305 2.80334 0.174625 0.328419 -0.492045 2.56839 1.70325 -1.09347 -1.88643 -0.720346 -1.27102 -2.26145 -4.11039 1.48985 0.317581 2.09414 0.550185 -2.04835 -1.49892 -0.916506 -0.548407 -3.60825 -3.30174 1.23849 -1.29206 0.47196 0.129268 0.305965 4.14822 1.44687 -1.02778 -0.747932 0.229112 -1.5347 -0.836256 -1.25598 0.9073 0.576661 -0.907872 -5.26933 -0.67198 -1.58989 -0.851511 -0.626825 -1.92738 -1.93438 -0.647156 -0.0788571 2.13059 1.84821 -1.49869 0.687919 -1.6136 -0.267351 -0.590245 0.403198 2.47813 0.69703 1.42972 0.622865 -0.919091 -1.08968 0.324108 0.153627 -1.72887 -1.24736 -2.44918 -1.37937 -0.415421 0.497135 0.551084 -0.803896 1.81661 3.09706 1.2484 -1.57149 -0.97525 0.658942 -3.54506 -0.381537 -1.55943 0.894007 -0.931773 0.556438 0.238127 1.86508 0.102892 -1.23776 -0.277083 0.211024 -1.6943 -0.279823 -0.704712 -0.264373 -1.87686 -1.02464 -0.920879 -0.483388 -1.55566 2.85957 -0.0128826 0.018621 0.0277101 0.671256 0.335118 1.27135 0.590369 -3.16283 -0.174486 -0.691286 -0.730356 0.593191 0.387776 0.0234864 -1.25027 -1.58998 0.132479 0.778908 -1.51765 -0.661297 0.144285 -4.16129 -0.977984 0.9581 -2.23919 2.71856 -0.532591 0.718483 -0.179842 1.54913 2.63493 0.846032 -2.80569 0.975482 -0.689609 -2.98506 -1.70291 0.477275 -0.169265 -0.364932 0.346079 -0.256999 0.702712 1.75159 0.343591 -2.47017 0.706009 0.135329 -2.95546 1.3832 -0.455276 -0.807377 -1.00426 -0.336267 -0.75682 1.35016 0.709444 -0.844224 0.75844 0.511949 0.566569 -0.668096 -0.905481 -0.861985 0.311058 -0.786006 0.120942 0.607902 -0.178685 -1.57824 -1.26872 0.964359 -3.388 -0.203376 -0.928991 0.168616 -1.66684 -2.77925 -0.711465 2.37088 0.106999 -0.806586 -0.272771 -0.578828 -0.0974424 1.50368 -1.81799 -0.90497 -3.20131 -3.37496 -2.78372 -0.771945 0.207739 -0.845935 -0.770615 0.00609301 0.730037 -1.89346 0.377453 -1.88549 -4.8875 -3.22356 0.153555 -2.87769 -0.66718 0.38565 1.76251 -1.07998 -0.0254158 1.1534 -0.484776 0.620758 -0.451687 -1.76108 1.14415 -2.00041 -2.63806 -1.32766 -1.88376 0.41943 0.267302 0.943857 0.905822 -0.984152 0.835232 -0.610624 -3.10358 -2.42601 -2.66561 -0.0216319 -1.30964 -0.877728 -0.538708 -0.399947 0.704185 -0.751305 0.130587 -1.73765 -2.89816 -3.03834 -3.57828 0.591205 -3.60395 -1.90641 -2.30313 -2.02789 -1.16395 1.73491 -0.880907 0.00481246 -0.395587 0.744254 0.0459006 -1.24344 -3.77482 -4.15327 -2.39536 -1.00303 -1.08588 1.55616 -1.41171 -2.43888 1.33254 1.11054 -2.26613 -1.10171 1.12833 1.29719 -1.75355 -4.95864 -1.53772 -1.76618 -1.13569 -3.44682 0.47242 1.66493 -0.236565 0.624862 0.46714 0.628403 -1.30689 -3.82711 -4.61235 3.29043 -1.57413 1.95678 0.409444 -1.03036 0.980815 -1.89695 -0.792547 0.0577484 0.09373 0.599851 -3.4928 -0.817185 0.483529 1.23816 -0.0348787 -1.266 -2.06466 -2.87271 0.801071 0.0811966 0.218492 -0.428156 0.568166 -0.896876 -1.9055 -4.97502 1.2792 0.32386 1.03016 2.07271 -1.64334 -0.765212 0.327273 -2.36619 -0.419586 0.21208 -0.641379 -0.718926 0.292667 -1.87877 -0.157977 -1.67861 -2.51147 -2.81116 -1.9156 -1.51666 -0.0676808 0.996428 0.722512 0.132426 0.598366 -0.10478 -1.25489 0.594661 -1.50183 1.30778 -0.0557417 -0.00417487 0.123508 -0.439892 0.725999 0.0185008 -2.21016 0.42737 0.761436 0.214911 -0.0326984 1.56182 -2.11209 -3.62894 -0.405008 -2.31551 0.910491 -1.37073 0.0860339 -0.895746 0.956458 0.196993 0.604376 -0.661855 -0.523573 0.907 2.00107 -1.35892 0.62527 -0.948329 -0.345558 -0.064439 -1.2875 0.927342 0.501712 -0.254474 -0.699025 1.78349 -0.598404 -0.966171 0.817683 1.69908 0.774687 -0.632341 2.36353 -0.783719 0.152513 0.0561673 0.221745 -0.898193 0.93789 -0.395705 -0.676518 0.331254 -3.47301 -0.677044 -0.324832 0.229908 -0.0018663 -0.149615 0.326003 -0.123317 -1.37257 0.0966405 -0.00981404 -0.900642 1.17552 -0.662581 -0.152231 0.9574 -0.278511 -0.874216 0.100938 -1.57209 0.803191 -0.608106 0.515469 -0.674046 -0.877399 -0.340328 0.145266 0.583033 0.134882 0.56929 -0.629038 0.773001 -0.471159 -0.704998 1.67268 0.453107 -2.27997 2.67656 -0.00997158 -0.45339 -0.0210784 2.40724 0.676524 0.587611 3.31518 0.0775945 1.79018 0.12013 -0.674302 0.926749 0.503812 0.64463 -1.24293
0.34142 0.523669 0.781375 -0.798147 0.937582 -0.978416 -0.751079 -0.720066 -0.838652 -0.222222 0.59946 0.842171 -0.675658 -0.73328 -0.610851 0.144966 0.764072 0.071601 0.87793 -0.678291 -0.363057 0.585351 0.684336 -0.930273 0.717714 -0.842531 0.210781 0.691623 0.132177 -0.307837 0.151677 0.96816 -0.397422 -0.527256 0.23773 0.800941 -0.512867 0.144877 -0.65218 -0.222541 -0.235803 0.46484 0.347722 0.664729 0.23695 -0.40249 0.903617 -0.0504626 0.291866 0.350722 -0.717758 0.396168 -0.677564 -0.399318 -0.813866 -0.814591 -0.617652 -0.21779 0.195902 -0.310589 0.676572 -0.835738 0.709858 -0.281716 -0.211107 0.117365 0.0245893 0.649107 0.101501 0.180241 -0.571847 -0.395319 0.0694557 -0.87335 -0.950807 -0.871145 -0.0888255 0.549157 -0.806268 -0.133194 -2.14698 -1.39321 -0.206361 -0.0905903 -0.13347 -0.534886 -0.512655 -0.453184 -0.742886 -0.405128 -0.536936 -1.08544 -0.777647 -0.955226 -2.13641 -3.11711 -2.81237 -3.47331 -3.04876 -3.23739 -3.30923 1.43813 -1.36846 -1.38589 -0.46863 1.6141 -0.999644 -0.285302 -2.54406 -1.43262 -0.519102 0.037401 0.189295 0.524822 1.33073 0.744926 0.39894 0.320715 0.141291 -2.75085 -2.1491 -0.90297 3.13693 -1.61439 1.06019 -0.0442821 -0.459402 0.91171 -0.530738 0.18028 -0.563392 -0.126213 -0.278716 -0.783256 1.07848 -1.68436 1.92933 0.840029 -0.0541807 0.104689 -0.58016 -0.737502 0.399914 -0.421132 -1.24177 -2.55065 -2.46861 1.64983 -3.33321 0.690665 -1.60388 0.329235 0.252529 -0.0682839 0.947264 -0.791462 0.655337 0.525338 -0.0141957 -0.201453 0.378235 -0.24969 -0.628446 0.259344 -2.45719 1.12437 -0.292966 -0.903164 -0.928923 -0.9197 -0.162433 -1.28285 -0.954052 -0.766055 0.317694 0.466281 -1.34991 0.316662 -0.476173 -0.0539871 -0.458179 0.942881 -0.315439 1.37345 0.46546 0.0995894 -0.699676 0.50673 -0.368052 -0.138934 -0.561524 0.0103222 -0.747633 1.58807 -1.36032 -0.0441834 -0.937415 0.66792 -0.723089 -1.05724 -1.4202 -2.21133 -0.888126 -0.604836 2.26882 -0.546926 0.563704 -0.140699 -0.838487 -0.630839 -0.709141 0.131515 -0.582602 0.160686 0.351369 -1.13396 0.429324 -0.0387006 -0.627189 0.990388 1.14026 -1.07726 -0.627692 -0.98202 0.867199 -0.10253 -1.0015 -1.44806 3.29479 0.273071 0.922126 0.752206 -1.3989 0.423218 -0.615505 0.411498 1.30607 -0.249609 -0.00785817 -0.151517 0.650851 -0.722296 -0.218183 0.877948 -0.432664 0.532271 1.36918 -1.47245 1.43566 -1.86785 1.05237 0.167608 0.939822 -0.647596 0.778575 -2.65188 -0.730407 -0.404885 -0.616877 0.395016 0.474764 0.871538 0.250138 -0.178997 -0.317638 0.446358 -1.32907 -1.0804 0.411238 0.550698 -0.107691 -0.147281 -0.0988233 -0.0302578 0.444536 0.270984 0.478589 -1.34637 3.30248 -0.681281 -0.0298063 -0.123657 0.0921205 -1.16655 3.7419 -0.615382 1.93953 -1.83752 1.12695 -0.367575 1.08478 0.939905 0.913577 -0.651993 -0.650731 -2.25409 -1.16941 0.335021 -0.263459 0.819327 0.92298 0.832992 0.991843 2.27486 -3.68523 -1.10389 -1.50159 -1.77478 -0.115741 0.79535 -1.14482 -1.14995 -4.76055 -2.67792 -0.102877 3.20387 -0.0661888 1.54832 0.768819 -0.155553 1.13484 1.8207 1.53732 -0.510553 -0.672144 0.414011 0.283615 0.0198409 -0.406044 0.298669 0.592871 -0.0990894 4.70263 -1.78916 -0.0184347 -0.349852 0.237282 -0.120004 -1.29363 -0.360537 -1.38001 5.0869 0.469407 -0.98044 0.486719 0.630886 -0.816903 0.996746 -0.0373239 -0.459658 1.29148 0.329735 -0.635936 0.605773 -0.682315 0.911116 1.16619 -0.0490446 2.4959 2.12634 2.05134 -2.8084 -0.748426 -0.833263 -0.979638 0.699088 -0.753982 -0.516542 -2.70906 -4.18771 2.02226 -0.570727 0.963855 -0.0887031 -0.372697 0.163419 0.517113 1.39426 -0.530533 1.11047 0.126321 -0.083999 0.37666 -0.654337 0.482668 0.0711247 0.848121 -0.204066 -0.965322 0.674719 -0.3164 0.264647 -0.265299 -0.831691 0.124673 0.491085 -3.99718 -2.89669 -2.06777 1.04504 -2.03684 -1.76822 -0.219282 0.865242 -0.752243 1.83989 0.1838 0.279524 0.218067 0.360176 -0.662094 -1.19705 -0.632131 -0.391382 -2.44199 0.75132 0.219332 2.02604 0.784979 -1.01778 0.973244 -0.273066 -0.426688 0.0329657 -1.07435 2.99697 -5.07705 -2.86406 -3.27256 -0.0557813 0.446022 -0.665843 0.348391 2.10329 0.39611 -0.0401171 0.18905 -0.476029 -0.551861 0.557447 -1.37697 -1.04467 -3.11767 -0.786818 -1.49703 -1.50761 -0.658522 -0.285181 0.74519 -0.886417 -0.612267 -0.998423 -0.251978 1.23363 -2.08437 0.765749 1.17187 -0.0024111 0.107623 0.905437 0.908086 0.250901 -0.477438 0.127712 0.46575 0.00923261 -1.57331 -0.897429 -0.422495 -0.210638 -1.88019 -2.15107 -4.87914 -0.357754 -0.849362 -0.732372 0.0850117 0.300805 -0.47706 -0.215946 -1.50814 -6.87803 0.84297 0.621416 0.65117 1.76601 -0.50824 -0.0810666 1.39464 -0.261017 0.88567 -0.830827 0.247528 -1.89757 0.0687072 -0.413719 0.181132 0.548505 0.68122 2.70655 -2.23445 -2.50414 -1.00508 0.691948 0.718383 -0.278469 0.212324 -0.240041 -3.67581 0.338507 -1.53652 0.835471 -0.610452 0.134031 1.66029 0.0234132 1.1682 0.602977 -0.824889 0.0474194 -0.862006 0.468023 0.283923 1.04999 -0.0944471 -0.469705 2.82133 -4.07319 -6.95212 -1.71071 0.263515 -0.678141 -0.0134859 0.396557 -0.476888 0.246909 -2.85424 -1.21075 -0.313043 -0.968073 1.00052 1.24405 -0.0928145 1.11554 0.0373666 -1.09643 -0.276474 -0.27908 0.833008 -0.337941 0.167021 -1.80127 0.228891 -0.234197 -0.0544824 1.88894 -4.93969 -1.83871 -1.0059 -0.864571 -0.0510935 -0.521445 0.77395 0.10863 -4.40097 -0.321875 -0.731998 0.951431 -0.815079 -0.694167 0.626336 -1.28016 0.255423 -1.083 -0.237441 0.1685 -0.180158 0.0905233 0.0102715 1.06681 -0.750461 -0.263242 -2.71343 0.66654 -2.53315 -1.74266 -0.85043 -0.65001 -0.306935 -0.348796 -0.325842 0.728303 -2.20787 1.11732 0.655261 0.00277531 -0.188483 0.447009 -0.317155 0.00755614 -0.213384 0.36574 -1.02282 -0.426582 -1.06484 -0.670666 0.378138 -1.15529 1.59076 0.419987 3.66591 -4.28056 -3.51046 -1.12277 -0.733715 0.480557 -0.398582 -0.0612021 0.438166 -0.51082 -0.0882152 -0.954146 0.479369 -0.68389 -0.487497 -1.13939 -0.0876154 -0.023755 0.641934 0.18576 0.289686 0.433961 -0.198347 -1.22919 -0.0628878 0.0434065 -2.07725 -0.795757 -0.751272 -0.538212 -1.9346 -0.213103 -0.603936 -0.319981 0.840974 0.487209 -0.478587 -0.483688 -1.55315 -1.45136 -0.803378 -0.863707 0.452274 0.0731547 0.771302 0.0666525 0.774278 1.77994 0.54792 0.885198 0.995059 0.649939 0.335508 -0.471052 -0.493858 0.256853 -0.146619 -0.00537481 -3.94744 -0.466607 -2.03577 -0.66078 0.847304 -0.940205 -0.482507 -1.11993 -3.87294 -1.26635 -0.13761 -0.316253 0.427849 -0.18927 -0.216135 0.205636 -0.0169949 -0.0918908 -0.360651 0.0333042 1.6227 -1.49108 2.27466 2.71812 0.737938 2.18475 0.232414 0.23658 -1.87621 -2.35036 0.0654828 0.509093 -0.337257 -0.910901 -0.536238 0.975692 -2.00385 -2.86875 -1.06441 -1.24589 -2.43546 -0.342815 -1.19132 -0.445462 -1.10356 -0.200444 -0.295293 0.584178 -1.12869 2.07209 -2.04776 -1.09537 -0.188267 -3.39368 -2.91407 -0.968053 -0.472539 -1.2847 -0.423285 0.233002 0.265834 0.644167 -0.0467125 0.774244 -1.02118 -1.94956 -2.0094 -0.779567 -1.27632 -3.11679 -4.2824 -3.15163 -0.740541 -0.384339 -3.67509 -3.3458 -2.01254 -1.21073 -0.70047 -0.240519 0.438024 0.161711 0.182926 0.773993 0.846884 -0.494629 -0.975579 -0.586152 -0.690921 0.492463 0.368838 -0.627023 -0.182059 0.874446 0.63971 -0.621613 -0.179359 0.0103538 -1.48071 0.0636811 -0.0297079 -0.825975 -0.825474 -0.276147 0.305575 0.380732 0.221274 -0.518337 -0.851635 -0.311851 0.123788 -0.591758 -0.3287 0.517098 -0.0823004 -0.521042 -11.9761
-0.154483 -0.45832 -0.790451 -0.0182407 -0.683954 -0.616419 -0.826383 -0.54075 -0.615106 0.852457 0.704889 0.604163 -0.963428 -0.490089 -0.136765 0.398218 0.601873 -0.271493 -0.799484 -0.149949 -0.544573 0.411719 0.454879 0.610915 0.295105 -0.472894 0.126048 -0.652495 -0.656718 -0.120202 0.589062 -0.496801 -0.717172 0.607691 -0.730404 -0.662177 0.585506 -0.367765 -0.281729 -0.658522 -0.472701 -0.968866 -0.447443 -0.463088 -2.07494 -0.260956 -0.321222 0.620194 0.271819 0.258824 -0.65524 0.514539 -0.349347 -0.11287 0.552423 -0.77139 0.826301 -0.455872 0.225672 0.121471 -0.789765 0.85976 0.0831691 0.35992 0.246249 -0.704862 -0.640684 -0.546939 0.191652 0.283923 0.29361 -0.874551 -0.1963 -0.872117 -1.00345 0.311181 0.138086 0.587565 0.590473 -0.206988 -0.499798 0.448085 0.917372 0.568705 0.542605 -0.339283 -0.399357 -0.127532 0.233637 0.72131 -0.384445 -0.973836 -0.832786 -0.760045 -0.054597 0.0578388 -0.612543 -0.777999 -0.263084 -0.54143 -0.909461 -1.06988 0.403122 -0.0898991 0.26731 0.443471 -0.788488 0.381201 -0.904248 0.314775 -0.617697 0.864088 -0.49964 -0.691932 0.567285 -0.791926 0.296107 0.367884 -0.967833 -1.77329 -1.24662 0.237045 -1.43871 -1.45681 -1.73873 -1.08929 -2.91305 -2.38578 -1.3908 -2.49515 -2.56233 -3.28539 -1.36743 -0.360987 -0.637865 0.574175 -0.817577 0.108665 0.926171 0.148301 0.947529 0.146105 -0.109997 0.319868 -0.531777 0.259091 -0.309143 -1.81388 -1.12222 -2.41892 -2.24758 -1.07877 -1.59697 -4.07478 -3.81086 -5.33655 -6.86364 -0.825586 -3.52174 0.736323 -3.07262 -2.44911 -1.20275 -2.25363 -1.55897 -0.525482 -0.811922 0.681667 -0.244758 -0.820103 -0.712048 -0.532175 -0.554882 -1.94321 -4.36574 -8.51851 -2.41853 -0.0691133 -1.23713 0.0651531 0.793205 1.33153 0.864888 2.02237 1.26215 0.382022 0.913094 -0.459729 1.86343 -0.279746 -3.48066 -2.11469 -1.00343 -0.651578 -0.706029 0.630885 -0.790492 0.579045 -1.06959 0.381505 -0.998626 -5.73534 -3.44702 -0.998461 -0.974452 -0.793923 -0.238815 -0.0295296 0.578479 0.709481 1.46104 2.05375 0.970228 -0.0794943 0.575873 0.354647 0.120172 -0.74035 0.668655 -2.53308 -5.61947 -1.00234 0.223807 0.290338 -0.123537 -0.466922 -1.08445 -0.946888 -1.03641 1.13796 -0.886165 -0.574091 0.173045 -0.705766 -0.295416 -1.39963 -0.049947 0.468206 1.01547 0.79591 0.831929 0.0776394 -0.25041 -0.479583 -0.671309 0.523208 0.000792602 -0.962499 -3.87161 -1.56806 -0.396407 -0.426353 -0.0419651 -0.772368 1.05086 -2.52583 -3.63827 -1.42534 1.13868 -0.204356 -0.323739 0.273266 0.567395 -0.28376 -0.676393 0.49282 -0.138779 1.23605 -0.835537 -0.0634213 -0.59013 -0.520733 0.274966 -0.490248 0.584368 -0.114372 -0.557597 -0.678497 -0.833064 -0.137103 -0.0210159 -0.295427 -0.799483 -0.436853 0.470104 -1.23887 0.753442 -0.892732 0.181548 -0.620291 0.487145 0.31468 -0.859215 -0.812887 0.7317 -0.966829 -0.29574 -0.871523 0.107974 0.184744 -0.723846 -0.560633 -0.648562 -1.38224 -3.07634 -0.266814 -1.58269 -0.406687 -0.247972 -0.336377 -1.7965 -1.47414 -1.31125 -0.125966 0.470919 1.16641 1.42578 -0.260016 -0.0236476 1.43244 0.587512 -0.279944 -1.09438 0.627294 0.122314 0.771457 0.123706 0.396359 1.53699 0.238082 0.568839 -0.0378852 -1.18204 -4.06476 -3.44954 -0.501477 -0.714649 0.501156 0.487898 -1.39578 0.399332 1.1873 -0.675114 0.45274 -0.255981 1.16159 0.277039 -0.888244 0.599168 0.567669 1.60293 0.353479 0.0820014 0.733371 0.462643 0.608525 0.833844 1.35939 1.12578 2.81094 -2.32871 -3.88858 -1.40103 -1.42883 0.066522 -0.903668 -0.870659 -0.706432 -0.246889 1.33336 0.298943 0.561102 0.496172 -0.0481477 0.587825 0.735344 -0.118646 0.27212 1.13359 0.990244 0.580984 0.233105 1.18527 0.882965 0.370553 1.15879 1.06552 -3.93855 -1.05565 -1.15177 -0.671177 0.0668597 -1.2692 -0.851278 -1.31872 1.17332 -2.24547 -0.267483 0.329513 -0.131824 -0.448016 0.16624 0.182135 -0.409927 1.5916 0.0963916 -0.441942 0.543449 1.1824 0.17877 -0.488705 -0.897226 -0.7166 -0.557877 -0.149201 -3.30401 -1.86085 -1.29294 -0.896795 -0.951844 -0.646119 0.885207 -1.41322 -1.55419 2.58658 0.149063 0.287348 -0.451352 0.0954092 0.372566 -0.563565 1.72312 -0.00967427 0.144981 0.328992 -0.157862 0.416573 0.106919 0.457425 0.447352 -0.324646 -0.762057 -1.1075 -4.10103 -1.50196 -2.2891 -0.522457 -0.812021 0.659668 -0.799134 -0.0107716 -1.09218 1.04048 -1.38441 -1.99446 0.535189 0.949664 -0.809733 1.18508 1.17057 0.331165 -0.517796 -0.561733 0.265532 0.496549 -0.20827 -0.401536 -0.347612 0.00524776 -3.23526 1.51022 -0.89759 -3.46373 -4.55405 0.616048 0.104952 0.147347 -0.350727 -1.17287 -2.19181 -1.30519 1.22798 -0.203129 2.08829 -2.42503 1.1742 0.83102 -0.0312365 0.724244 0.424758 -0.587245 0.420353 -0.151579 0.109619 0.388571 0.0406819 -0.49701 -0.944657 -1.31222 -0.0452547 -3.37144 -1.33124 -0.766502 -1.32633 0.81761 0.267231 -1.14932 -1.0865 -3.79347 -3.68263 -0.406731 -1.59605 1.34376 -0.128947 0.476544 1.7465 -1.58761 -0.303675 0.783629 0.0321267 -0.380866 0.356055 -1.37806 -0.17376 0.316857 1.75921 -1.67602 -2.29034 -3.9022 -1.65079 0.741111 0.682773 -0.91969 -0.131974 -1.13562 -1.86589 -2.08848 -2.10046 0.541074 -1.87465 1.13862 -1.47551 2.41489 -0.182934 0.654041 -0.940266 -1.17491 -0.246441 0.37086 -0.960229 1.30332 -1.88522 2.47737 -0.396497 -1.23359 -0.965332 -6.41674 -0.929185 -0.868066 0.231378 -0.905198 -2.14444 -0.0295379 -1.93639 -1.01803 -0.52741 -0.289913 -2.55576 -8.02732 -7.17484 -5.22521 -1.0176 -0.675133 -0.132623 -1.22569 -0.683625 -0.616377 1.84355 -2.07032 2.45723 -1.97725 -3.71223 -2.06877 1.17203 -1.40636 0.346873 -0.704391 0.0846435 0.0801482 -0.850659 0.286312 -0.657398 -1.99827 0.570846 -1.93898 -4.60423 -0.682504 2.06907 -1.52174 -1.743 -1.1055 0.380947 0.489985 -0.290772 -1.33895 -2.24471 -0.611788 -3.29771 1.82413 2.1629 -1.02178 3.2904 1.69606 1.97281 -0.971671 0.716868 0.164374 0.967184 0.359499 -0.79643 -0.696147 -1.76173 -4.60545 0.114049 -0.00468255 0.345814 1.0776 -0.312693 0.149333 -0.603652 -1.19282 -1.22514 -0.565193 0.0712138 0.0986547 -2.18023 -2.70873 1.21041 1.71458 0.90714 -2.87594 0.0280105 0.560881 -0.0366982 -0.576837 -0.0918623 -0.047225 -0.580548 -1.94667 -3.11244 0.856067 -0.844316 0.512515 -1.66337 -0.071615 -0.454819 -1.60295 -1.79581 0.0668057 -1.0299 -0.0770702 -2.14756 0.0130348 2.08718 -1.47255 -2.96194 4.79666 4.58 -0.825946 0.204276 -0.852318 0.212943 -0.380611 -0.603918 0.175415 -0.940003 -2.75836 -1.39764 0.701622 -0.280957 1.42384 0.680216 -1.26896 -0.672555 0.0843312 -0.925186 -1.36094 -0.252088 -1.31517 0.602279 -1.57562 -0.985274 3.40889 1.40974 -0.600461 3.77696 0.00988052 1.66155 -0.34963 0.582977 0.263539 0.0968066 0.173884 -0.730887 -2.70648 -0.076464 -0.585445 -1.92757 -1.60578 -1.47086 -0.271395 -0.27281 -0.528867 0.0940898 -0.16587 -0.269325 0.426966 1.37232 1.11425 1.44959 3.11638 5.18018 -1.00883 1.20105 -0.0141457 -0.305324 -0.137982 -0.0922587 0.698971 -0.824078 0.193604 0.967999 3.45242 0.487529 1.78619 2.22522 1.84136 2.0005 1.53725 0.92921 2.10616 1.00386 2.59284 0.964492 1.70326 0.0267855 2.75659 0.945045 2.83293 -0.650331 -0.964609 -0.729094 -0.323668 -0.375124 -0.342294 0.77524 0.201866 -0.291001 -0.36802 0.628228 0.537468 0.0634151 -1.30024 0.101955 -0.486039 0.0515761 -0.0388563 -0.818621 1.53344 -3.19536 1.72002 -0.475956 -0.0335811 1.27784 -0.753497 -0.204032 -1.15537 -2.3336 -2.08768 0.71797 0.341132 0.314192 -0.0723349 0.0390403 -7.60606
